tree
version=v4
num_class=1
num_tree_per_iteration=1
label_index=0
max_feature_idx=26
objective=quantile
feature_names=net_flow_lag1 net_flow_lag2 net_flow_lag3 net_flow_lag6 net_flow_lag12 net_flow_roll_mean3 net_flow_roll_mean6 net_flow_roll_std3 net_flow_roll_std6 inflow_outflow_ratio entry_regularity emi_coverage savings_runway_months days_since_last_entry months_to_festival calendar_month input_level_z input_momentum_3m input_volatility output_level_z output_momentum_3m output_volatility rainfall_anomaly_mm heat_index heat_index_pctile sector horizon
feature_infos=[-19850:54755.830000000002] [-19850:54755.830000000002] [-19850:49611.669999999998] [-19850:49611.669999999998] [-12811.110000000001:49611.669999999998] [-16314.626666666663:38135.830000000002] [-12341.199999999999:25999.99666666667] [200.04817128212383:20321.858305775091] [625.95614402288538:19008.341183894419] [0.088482171031871254:3.7509727861046205] [47:62.333333333333336] [-32.807472972675427:120.56241055111522] [-3.6366082264484736:20.945292940943251] [0:2] [0:2] [1:12] [-2.3554223888561685:1.6955622296330868] [-0.18863928957394249:0.21780071250292532] [0.0081464450968857412:0.17442408391177747] [-2.019406105486091:2.1464904434056864] [-0.12469870301968977:0.19484884501567334] [0.0064452858029388571:0.093862218219748383] [-2.3169464528753556:6.0283813057863593] [0:0.97868995399229519] [0.22916666666666666:1] -1:0:1:2:3:4 [1:6]
tree_sizes=693 742 766 752 761 762 760 754 761 761 762 754 755 752 746 759 752 767 767 769 762 768 764 749 741 768 748 773 768 746 753 768 744 753 742 751 738 752 747 747 748 766 747 748 742 752 752 750 753 770 753 767 768 766 761 767 769 755 758 766 769 771 752 775 756 773 766 764 771 771 773 772 777 782 759 776 772 769 775 767 763 739 756 756 753 752 763 749 773 773 756 769 758 769 776 766 766 767 767 767 768 767 750 774 773 766 773 780 764 753 763 779 760 756 763 772 758 757 751 746 773 774 749 753 751 741 751 766 749 755 757 754 746 740 776 778 775 757 754 756 758 757 743 779 747 754 760 753 750 755 761 741 757 753 751 758 750 750 751 758 759 751 759 756 767 748 767 762 760 780 754 759 762 774 751 764 775 761 752 753 781 756 757 759 768 765 777 771 761 761 759 769 762 759 762 763 753 773 771 752 760 766 774 755 769 770 756 774 745 777 750 765 768 758 759 766 756 758 782 763 754 765 778 776 766 758 758 778 763 756 777 761 757 743 755 757 765 752 777 775 776 750 764 747 784 779 764 752 762 773 774 763 760 760 762 748 760 770 776 783 784 762 761 749 728 772 760 755 753 748 755 762 765 761 761 751 762 763 762 768 761 750 754 750 750 774 756 755 778 756 749 764 752 758 754 753 742 759 773 771

Tree=0
num_leaves=7
num_cat=0
split_feature=3 12 17 12 11 26
split_gain=21.14 10.364 5.96742 4.52793 4.51595 3.54759
threshold=8659.1650000000027 7.3035376688774249 0.049845184511442049 9.1537741553513214 7.8943152306680657 3.5000000000000004
decision_type=2 2 2 2 2 2
left_child=3 -2 4 -1 5 -3
right_child=1 2 -4 -5 -6 -7
leaf_value=20260.224999999999 20476 20704.800097656251 20431.984842434154 20533.783281249998 21001.924843749999 20936.533281249998
leaf_weight=1358 281 147 97 601 180 186
leaf_count=1358 281 147 97 601 180 186
internal_value=20515 20515 20515 20515 20515 20515
internal_weight=2850 891 610 1959 513 333
internal_count=2850 891 610 1959 513 333
is_linear=0
shrinkage=1


Tree=1
num_leaves=7
num_cat=0
split_feature=3 12 26 3 16 26
split_gain=18.5278 8.30237 7.71188 7.85613 6.25236 5.41724
threshold=12826.945000000002 8.8360454558043617 3.5000000000000004 4937.2900000000009 -0.49498972978992245 3.5000000000000004
decision_type=2 2 2 2 2 2
left_child=1 -1 3 -3 -5 -2
right_child=5 2 -4 4 -6 -7
leaf_value=-162.19006054687495 140.38049420362228 -18.7611660042101 -114.08845010505975 425.82974148502353 32.783314846658755 403.2730639027655
leaf_weight=1593 179 183 416 108 98 273
leaf_count=1593 179 183 416 108 98 273
internal_value=-0.000147317 -0.001198 0.00128412 0.00431538 0.00831884 0.00541722
internal_weight=2850 2398 805 389 206 452
internal_count=2850 2398 805 389 206 452
is_linear=0
shrinkage=0.03


Tree=2
num_leaves=7
num_cat=1
split_feature=12 3 25 17 26 4
split_gain=16.8417 10.833 5.9693 3.40722 2.86404 2.44755
threshold=7.3035376688774249 9001.2500000000018 0 -0.073793768738991614 4.5000000000000009 23093.335000000003
decision_type=2 2 1 2 2 10
left_child=-1 3 -3 4 -2 -5
right_child=1 2 -4 5 -6 -7
leaf_value=-157.32435873046867 408.1948905679493 528.30580964541707 118.93871197691416 -109.00431934719323 -244.89074727809813 93.859233979405161
leaf_weight=1469 80 201 376 565 45 114
leaf_count=1469 80 201 376 565 45 114
internal_value=-0.000252544 0.00212518 0.00525778 -0.000126709 0.00440476 -0.000966177
internal_weight=2850 1381 577 804 125 679
internal_count=2850 1381 577 804 125 679
cat_boundaries=0 1
cat_threshold=16
is_linear=0
shrinkage=0.03


Tree=3
num_leaves=7
num_cat=0
split_feature=3 12 17 26 26 3
split_gain=16.4413 8.74757 8.99086 8.69218 8.14201 6.47759
threshold=15048.750000000002 7.3661675717190898 -0.035511442023205601 4.5000000000000009 4.5000000000000009 6354.4450000000006
decision_type=2 2 2 2 2 2
left_child=1 -1 4 -2 5 -3
right_child=3 2 -4 -5 -6 -7
leaf_value=-181.17121976542961 131.36570734294571 241.71547458009945 -68.326565970382816 502.53281494750644 -85.10146745254643 387.02352202567624
leaf_weight=1436 189 132 664 130 147 152
leaf_count=1436 189 132 664 130 147 152
internal_value=-0.000210453 -0.00102014 0.000999087 0.00619687 0.00436805 0.00732632
internal_weight=2850 2531 1095 319 431 284
internal_count=2850 2531 1095 319 431 284
is_linear=0
shrinkage=0.03


Tree=4
num_leaves=7
num_cat=1
split_feature=3 25 4 12 26 23
split_gain=14.7129 8.87132 3.3316 3.13291 2.75209 5.17479
threshold=8659.1650000000027 0 11101.875000000002 9.1537741553513214 2.5000000000000004 0.26457583937361423
decision_type=2 1 10 2 2 2
left_child=3 -2 -3 -1 -5 -6
right_child=1 2 -4 4 5 -7
leaf_value=-232.25125566193145 498.11988412361256 1.9236854144944904 127.71181351045625 100.01736405309906 -137.05422892169582 421.09511321047961
leaf_weight=1358 235 572 84 196 374 31
leaf_count=1358 235 572 84 196 374 31
internal_value=-0.000305157 0.00288901 0.0010075 -0.00175867 4.48498e-05 -0.001367
internal_weight=2850 891 656 1959 601 405
internal_count=2850 891 656 1959 601 405
cat_boundaries=0 1
cat_threshold=16
is_linear=0
shrinkage=0.03


Tree=5
num_leaves=7
num_cat=1
split_feature=3 25 12 26 4 23
split_gain=12.6605 7.08258 2.9619 2.84702 4.88318 4.4312
threshold=8659.1650000000027 0 9.1537741553513214 2.5000000000000004 23093.335000000003 0.26457583937361423
decision_type=2 1 2 2 10 2
left_child=2 -2 -1 4 -4 -5
right_child=1 -3 3 5 -6 -7
leaf_value=-225.28371799207346 483.17628759990419 18.913754847368615 15.905153970377606 -132.9426020540449 254.03384687492664 408.46225981416529
leaf_weight=1358 235 656 158 374 38 31
leaf_count=1358 235 656 158 374 38 31
internal_value=-0.000410383 0.00255269 -0.00175867 -4.9841e-06 0.00295431 -0.00144089
internal_weight=2850 891 1959 601 196 405
internal_count=2850 891 1959 601 196 405
cat_boundaries=0 1
cat_threshold=16
is_linear=0
shrinkage=0.03


Tree=6
num_leaves=7
num_cat=1
split_feature=12 3 25 23 6 5
split_gain=12.3512 8.12627 5.07852 2.83811 2.5129 2.37401
threshold=7.3035376688774249 6182.2250000000013 0 0.26457583937361423 16845.104166666672 11981.668333333335
decision_type=2 2 1 2 2 2
left_child=5 3 4 -2 -3 -1
right_child=1 2 -4 -5 -6 -7
leaf_value=-169.59344216597145 -103.84484720251577 469.05061998611296 58.176621690599376 373.05659794114416 404.61450396719135 86.565510135030905
leaf_weight=1418 562 202 527 45 45 51
leaf_count=1418 562 202 527 45 45 51
internal_value=-0.000410383 0.0016259 0.00366193 -0.00097204 0.00712791 -0.00232449
internal_weight=2850 1381 774 607 247 1469
internal_count=2850 1381 774 607 247 1469
cat_boundaries=0 1
cat_threshold=16
is_linear=0
shrinkage=0.03


Tree=7
num_leaves=7
num_cat=1
split_feature=3 25 4 4 26 12
split_gain=11.52 6.45364 2.82831 2.7361 6.15946 2.45188
threshold=8659.1650000000027 0 14569.165000000003 23093.335000000003 2.5000000000000004 7.3035376688774249
decision_type=2 1 10 10 2 2
left_child=3 5 -3 -1 -5 -2
right_child=1 2 -4 4 -6 -7
leaf_value=-144.6510835762399 -29.92044752676135 2.1909951211310683 119.9208576761655 249.52817688475434 -134.09055218900008 461.58164751002073
leaf_weight=1845 31 614 42 38 76 204
leaf_count=1845 31 614 42 38 76 204
internal_value=-0.000441951 0.00238453 0.000782608 -0.00172806 0.00276522 0.00652439
internal_weight=2850 891 656 1959 114 235
internal_count=2850 891 656 1959 114 235
cat_boundaries=0 1
cat_threshold=16
is_linear=0
shrinkage=0.03


Tree=8
num_leaves=7
num_cat=1
split_feature=3 25 12 26 4 23
split_gain=11.1309 6.58797 2.6736 2.85966 4.12111 2.99024
threshold=9001.2500000000018 0 9.1537741553513214 2.5000000000000004 23093.335000000003 0.26457583937361423
decision_type=2 1 2 2 10 2
left_child=2 -2 -1 4 -4 -5
right_child=1 -3 3 5 -6 -7
leaf_value=-205.03289350308012 441.25486454716901 20.671793852063303 36.776298152341624 -121.49944606906094 242.04233157821176 389.35622658879316
leaf_weight=1380 232 619 164 386 38 31
leaf_count=1380 232 619 164 386 38 31
internal_value=-0.000410383 0.00246127 -0.0016335 4.838e-06 0.00292611 -0.00141388
internal_weight=2850 851 1999 619 202 417
internal_count=2850 851 1999 619 202 417
cat_boundaries=0 1
cat_threshold=16
is_linear=0
shrinkage=0.03


Tree=9
num_leaves=7
num_cat=1
split_feature=3 25 4 12 12 23
split_gain=10.7285 6.28552 2.86317 2.37323 2.22408 2.02686
threshold=8659.1650000000027 0 14569.165000000003 7.3035376688774249 7.0241848294157778 0.26457583937361423
decision_type=2 1 10 2 2 2
left_child=4 3 -3 -2 -1 -6
right_child=1 2 -4 -5 5 -7
leaf_value=-218.54840083861268 -42.260480037373561 1.6336278806400877 115.7030781303186 434.496552148305 -57.798081260912568 260.63409335152153
leaf_weight=1167 31 614 42 204 712 80
leaf_count=1167 31 614 42 204 712 80
internal_value=-0.000410383 0.00231726 0.00073763 0.00640244 -0.00165153 -0.000423708
internal_weight=2850 891 656 235 1959 792
internal_count=2850 891 656 235 1959 792
cat_boundaries=0 1
cat_threshold=16
is_linear=0
shrinkage=0.03


Tree=10
num_leaves=7
num_cat=1
split_feature=12 15 25 8 6 15
split_gain=8.71385 5.92996 3.41474 2.94868 1.8203 2.01605
threshold=7.3661675717190898 10.500000000000002 0 9838.6931073811884 4202.7066666666678 4.5000000000000009
decision_type=2 2 1 2 2 2
left_child=3 2 4 -1 -2 -6
right_child=1 -3 -4 -5 5 -7
leaf_value=-157.47697780168636 0.46024503581288129 -98.864342117256768 35.664190757478003 87.603112117893417 83.502500677569188 424.18804267772958
leaf_weight=1442 48 414 674 40 46 186
leaf_count=1442 48 414 674 40 46 186
internal_value=-0.000494564 0.00123156 0.00253194 -0.00208766 0.00525773 0.00654077
internal_weight=2850 1368 954 1482 280 232
internal_count=2850 1368 954 1482 280 232
cat_boundaries=0 1
cat_threshold=16
is_linear=0
shrinkage=0.03


Tree=11
num_leaves=7
num_cat=0
split_feature=3 26 12 26 17 16
split_gain=8.69781 5.14121 4.72602 5.37027 6.7745 3.95743
threshold=15048.750000000002 4.5000000000000009 7.3661675717190898 4.5000000000000009 -0.073793768738991614 0.41374178662170508
decision_type=2 2 2 2 2 2
left_child=2 5 -1 4 -4 -2
right_child=1 -3 3 -5 -6 -7
leaf_value=-146.50038665572063 385.10467871673018 393.68217088960677 410.53221282648377 -127.85148635725217 13.142053107203214 -131.47620014642675
leaf_weight=1436 51 130 132 411 552 138
leaf_count=1436 51 130 132 411 552 138
internal_value=-0.000526132 0.00413437 -0.00111493 0.000369525 0.00199708 0.000963157
internal_weight=2850 319 2531 1095 684 189
internal_count=2850 319 2531 1095 684 189
is_linear=0
shrinkage=0.03


Tree=12
num_leaves=7
num_cat=2
split_feature=3 25 4 25 26 20
split_gain=7.68186 3.62711 2.67314 2.46813 2.44548 3.05003
threshold=9304.7900000000027 0 14569.165000000003 1 3.5000000000000004 -0.041631896778628989
decision_type=2 1 10 1 2 2
left_child=3 -2 -3 4 5 -1
right_child=1 2 -4 -5 -6 -7
leaf_value=364.00207234727259 398.74106399715521 0.80389628379592659 111.58662776601471 -186.89787206839318 -163.93745022973209 2.2116782990272092
leaf_weight=60 220 569 36 980 596 389
leaf_count=60 220 569 36 980 596 389
internal_value=-0.000568222 0.00187046 0.000608766 -0.00156219 -0.000525569 0.00114
internal_weight=2850 825 605 2025 1045 449
internal_count=2850 825 605 2025 1045 449
cat_boundaries=0 1 2
cat_threshold=16 22
is_linear=0
shrinkage=0.03


Tree=13
num_leaves=7
num_cat=2
split_feature=3 25 25 4 26 4
split_gain=7.27439 3.26899 2.37714 2.19433 1.9916 2.59263
threshold=9001.2500000000018 0 1 14569.165000000003 3.5000000000000004 23093.335000000003
decision_type=2 1 1 10 2 10
left_child=2 -2 4 -3 5 -1
right_child=1 3 -4 -5 -6 -7
leaf_value=1.8104407716532498 385.76680874839718 0.50979505968172423 -181.29093590634142 108.23902893303432 -161.17368478560041 135.7996640684498
leaf_weight=381 232 583 980 36 581 57
leaf_count=381 232 583 980 36 581 57
internal_value=-0.00059979 0.00172183 -0.0015885 0.000528571 -0.000550486 0.000970387
internal_weight=2850 851 1999 619 1019 438
internal_count=2850 851 1999 619 1019 438
cat_boundaries=0 1 2
cat_threshold=16 22
is_linear=0
shrinkage=0.03


Tree=14
num_leaves=7
num_cat=0
split_feature=6 15 11 26 15 12
split_gain=6.91372 3.34496 4.19328 4.00753 3.40688 3.39986
threshold=4549.168333333334 10.500000000000002 19.583444980071175 2.5000000000000004 3.5000000000000004 10.748954487868751
decision_type=2 2 2 2 2 2
left_child=-1 2 4 -4 -2 -5
right_child=1 -3 3 5 -6 -7
leaf_value=-201.55572726080433 -127.29368239049018 -92.797305981189652 396.82968098114958 756.55279715247991 102.42397932107626 -122.98557398745263
leaf_weight=1282 218 396 33 33 844 44
leaf_count=1282 218 396 33 33 844 44
internal_value=-0.000662926 0.000673039 0.00147826 0.00702703 0.000897459 0.00319231
internal_weight=2850 1568 1172 110 1062 77
internal_count=2850 1568 1172 110 1062 77
is_linear=0
shrinkage=0.03


Tree=15
num_leaves=7
num_cat=1
split_feature=3 25 6 4 26 16
split_gain=6.68116 3.12946 2.25665 1.94573 1.82229 2.86279
threshold=9304.7900000000027 0 5862.6408333333347 16364.790000000003 2.5000000000000004 -1.2993180953363088
decision_type=2 1 2 10 2 2
left_child=2 -2 -1 -3 5 -4
right_child=1 3 4 -5 -6 -7
leaf_value=-190.53302779340694 372.13310843515626 1.2106013491963026 274.45415802027935 91.80909589317784 -60.398425154307226 7.5151121541373671
leaf_weight=1313 220 575 30 30 533 149
leaf_count=1313 220 575 30 30 533 149
internal_value=-0.000694494 0.0015799 -0.00162142 0.00041396 -0.00026087 0.00235
internal_weight=2850 825 2025 605 712 179
internal_count=2850 825 2025 605 712 179
cat_boundaries=0 1
cat_threshold=16
is_linear=0
shrinkage=0.03


Tree=16
num_leaves=7
num_cat=0
split_feature=12 15 17 8 21 8
split_gain=6.88046 3.83479 3.18864 2.39534 1.96693 2.50882
threshold=7.0241848294157778 10.500000000000002 0.033133244621601839 9241.8534884619803 0.04127115417068123 3013.9677099916162
decision_type=2 2 2 2 2 2
left_child=3 2 4 -1 -2 -6
right_child=1 -3 -4 -5 5 -7
leaf_value=-157.33775947054403 39.809123228521798 -94.47095333915091 -61.235434453336069 40.497867880259314 4.8654262428117283 348.19989133246332
leaf_weight=1376 296 414 213 56 150 345
leaf_count=1376 296 414 213 56 150 345
internal_value=-0.000673449 0.00080761 0.00180895 -0.00213957 0.00268561 0.00384073
internal_weight=2850 1418 1004 1432 791 495
internal_count=2850 1418 1004 1432 791 495
is_linear=0
shrinkage=0.03


Tree=17
num_leaves=7
num_cat=1
split_feature=12 3 17 23 8 25
split_gain=6.30269 3.50304 3.36508 2.60801 2.36235 1.9509
threshold=7.0241848294157778 5328.3350000000009 0.031669385090665976 0.26457583937361423 9241.8534884619803 0
decision_type=2 2 2 2 2 1
left_child=4 3 5 -2 -1 -3
right_child=1 2 -4 -5 -6 -7
leaf_value=-152.61762668642766 -92.383304060821629 335.32222975793997 -76.152489491499281 335.94298124153465 39.282931843851571 82.798069448165293
leaf_weight=1376 504 258 159 38 56 459
leaf_count=1376 504 258 159 38 56 459
internal_value=-0.000694494 0.000723044 0.0018951 -0.00117127 -0.0020977 0.00277019
internal_weight=2850 1418 876 542 1432 717
internal_count=2850 1418 876 542 1432 717
cat_boundaries=0 1
cat_threshold=16
is_linear=0
shrinkage=0.03


Tree=18
num_leaves=7
num_cat=1
split_feature=12 3 17 8 23 25
split_gain=6.02424 3.63046 3.36508 2.3296 2.13321 1.9509
threshold=7.0241848294157778 5328.3350000000009 0.031669385090665976 9241.8534884619803 0.26457583937361423 0
decision_type=2 2 2 2 2 1
left_child=3 4 5 -1 -2 -3
right_child=1 2 -4 -5 -6 -7
leaf_value=-148.03909788583485 -89.611804938996954 325.26256286520174 -73.867914806754342 38.104443888535997 325.86469180428861 80.314127364720292
leaf_weight=1376 504 258 159 56 38 459
leaf_count=1376 504 258 159 56 38 459
internal_value=-0.000683971 0.000701902 0.0018951 -0.00205583 -0.00122652 0.00277019
internal_weight=2850 1418 876 1432 542 717
internal_count=2850 1418 876 1432 542 717
cat_boundaries=0 1
cat_threshold=16
is_linear=0
shrinkage=0.03


Tree=19
num_leaves=7
num_cat=1
split_feature=12 3 17 5 25 11
split_gain=5.80447 3.77063 3.42687 2.17931 1.78147 1.69674
threshold=7.3035376688774249 6182.2250000000013 0.033133244621601839 11981.668333333335 0 8.4482720909656717
decision_type=2 2 2 2 1 2
left_child=3 -2 4 -1 -3 -6
right_child=1 2 -4 -5 5 -7
leaf_value=-132.04022593299101 -64.066528338358566 329.6935513345901 -73.905319892930564 109.62551766685621 18.043957712673201 99.533017253470149
leaf_weight=1418 607 232 143 51 266 133
leaf_count=1418 607 232 143 51 266 133
internal_value=-0.000747107 0.000649059 0.00203613 -0.00205918 0.00298576 0.00161707
internal_weight=2850 1381 774 1469 631 399
internal_count=2850 1381 774 1469 631 399
cat_boundaries=0 1
cat_threshold=16
is_linear=0
shrinkage=0.03


Tree=20
num_leaves=7
num_cat=1
split_feature=3 25 12 12 10 19
split_gain=6.50854 2.95234 1.9136 1.62882 1.51987 1.41678
threshold=8659.1650000000027 0 3.8784950481637881 7.3035376688774249 54.500000000000007 -0.6281516225789
decision_type=2 1 2 2 2 2
left_child=2 3 -1 -2 -5 -4
right_child=1 -3 5 4 -6 -7
leaf_value=-272.69666789271486 -103.44684022824886 6.6847655300827409 27.928575561898295 337.58482799170849 323.78773542993628 -77.896598123865829
leaf_weight=747 31 656 295 60 144 917
leaf_count=747 31 656 295 60 144 917
internal_value=-0.000715539 0.00140919 -0.00168214 0.00420732 0.0053561 -0.000944766
internal_weight=2850 891 1959 235 204 1212
internal_count=2850 891 1959 235 204 1212
cat_boundaries=0 1
cat_threshold=16
is_linear=0
shrinkage=0.03


Tree=21
num_leaves=7
num_cat=1
split_feature=3 25 12 12 26 19
split_gain=6.31665 2.95234 1.96755 1.62882 1.56977 4.39689
threshold=8659.1650000000027 0 3.0021040045517302 7.3035376688774249 3.5000000000000004 -0.8678659192896766
decision_type=2 1 2 2 2 2
left_child=2 3 -1 -2 5 -4
right_child=1 -3 4 -5 -6 -7
leaf_value=-303.60404875307387 -100.34343502140145 6.4842225641802083 380.48328856481498 318.4807380692676 -102.21547845393212 -7.2057746510660703
leaf_weight=643 31 656 39 204 761 516
leaf_count=643 31 656 39 204 761 516
internal_value=-0.000683971 0.00140919 -0.00163623 0.00420732 -0.000970388 0.000242805
internal_weight=2850 891 1959 235 1316 555
internal_count=2850 891 1959 235 1316 555
cat_boundaries=0 1
cat_threshold=16
is_linear=0
shrinkage=0.03


Tree=22
num_leaves=7
num_cat=1
split_feature=3 25 12 12 10 22
split_gain=6.57314 2.95234 1.86475 1.62882 1.51987 1.31205
threshold=8659.1650000000027 0 3.8784950481637881 7.3035376688774249 54.500000000000007 1.4737168345909175
decision_type=2 1 2 2 2 2
left_child=2 3 -1 -2 -5 -3
right_child=1 5 -4 4 -6 -7
leaf_value=-258.10007423837317 -97.33313197075941 -34.638263570971588 -47.057635492848675 317.90286100987913 304.51968122496004 47.276371565540785
leaf_weight=747 31 274 1212 60 144 382
leaf_count=747 31 274 1212 60 144 382
internal_value=-0.000726062 0.00140919 -0.00169745 0.00420732 0.0053561 0.000332833
internal_weight=2850 891 1959 235 204 656
internal_count=2850 891 1959 235 204 656
cat_boundaries=0 1
cat_threshold=16
is_linear=0
shrinkage=0.03


Tree=23
num_leaves=7
num_cat=0
split_feature=3 12 26 17 4 26
split_gain=5.90319 3.4072 3.36559 3.74619 3.74655 2.80303
threshold=15048.750000000002 4.0342323381772696 3.5000000000000004 -0.073793768738991614 4265.0000000000009 3.5000000000000004
decision_type=2 2 2 2 10 2
left_child=1 -1 3 4 -3 -2
right_child=5 2 -4 -5 -6 -7
leaf_value=-243.2252605588061 -30.835875136672051 82.051212013773267 -87.18152737977853 -0.68692290607584572 448.0228712416303 342.24630049725744
leaf_weight=818 126 108 976 563 66 193
leaf_count=818 126 108 976 563 66 193
internal_value=-0.000736584 -0.00122156 -0.000460327 0.0010691 0.00490286 0.00310312
internal_weight=2850 2531 1713 737 174 319
internal_count=2850 2531 1713 737 174 319
is_linear=0
shrinkage=0.03


Tree=24
num_leaves=7
num_cat=0
split_feature=6 15 15 6 4 8
split_gain=5.32895 2.21211 2.77243 1.8826 2.78142 1.98042
threshold=5589.4458333333341 11.500000000000002 3.5000000000000004 9850.5550000000021 16493.820000000003 9751.9737834457901
decision_type=2 2 2 2 8 2
left_child=-1 2 -2 5 -5 -4
right_child=1 -3 3 4 -6 -7
leaf_value=-129.14349569815937 -91.497446737408367 -109.09007720933526 1.5231388245982656 218.61151663642667 166.664787691404 107.4821691168419
leaf_weight=1447 207 198 565 54 323 56
leaf_count=1447 207 198 565 54 323 56
internal_value=-0.000768152 0.000549145 0.00103234 0.00168769 0.00335714 0.000670417
internal_weight=2850 1403 1205 998 377 621
internal_count=2850 1403 1205 998 377 621
is_linear=0
shrinkage=0.03


Tree=25
num_leaves=7
num_cat=1
split_feature=6 15 15 5 10 25
split_gain=5.16115 2.05801 3.14855 2.63367 2.3583 2.32428
threshold=4549.168333333334 10.500000000000002 3.5000000000000004 9742.7766666666685 54.833333333333336 0
decision_type=2 2 2 2 2 1
left_child=-1 2 -2 5 -5 -4
right_child=1 -3 3 4 -6 -7
leaf_value=-159.65341891604268 -88.452299708239394 -81.092584515458697 271.72434125247997 194.99258582110721 132.70918668186036 -10.119218814596456
leaf_weight=1282 223 396 312 101 155 381
leaf_count=1282 223 396 312 101 155 381
internal_value=-0.000768152 0.000386233 0.0010179 0.00177158 0.00436576 0.000808357
internal_weight=2850 1568 1172 949 256 693
internal_count=2850 1568 1172 949 256 693
cat_boundaries=0 1
cat_threshold=20
is_linear=0
shrinkage=0.03


Tree=26
num_leaves=7
num_cat=0
split_feature=12 3 26 19 23 8
split_gain=4.79517 2.88979 2.66782 3.80444 2.12044 2.04068
threshold=3.7059953992930539 12705.695000000002 3.5000000000000004 -0.8678659192896766 0.5477955856471266 3383.3604934839154
decision_type=2 2 2 2 2 2
left_child=-1 2 3 -2 -4 -3
right_child=1 5 4 -5 -6 -7
leaf_value=-231.70397891099972 341.03007152147467 163.36267463410783 -106.5363197827042 4.1114062870913761 45.711025969356776 154.58626484695193
leaf_weight=769 51 34 821 654 117 404
leaf_count=769 51 34 821 654 117 404
internal_value=-0.000778675 -3.02601e-05 -0.000607665 0.000786118 -0.00165495 0.00213212
internal_weight=2850 2081 1643 705 938 438
internal_count=2850 2081 1643 705 938 438
is_linear=0
shrinkage=0.03


Tree=27
num_leaves=7
num_cat=1
split_feature=25 2 3 16 26 3
split_gain=4.65218 3.11923 2.31357 2.22119 4.15477 1.75719
threshold=0 15412.085000000001 5192.2900000000009 -0.43862780091087833 4.5000000000000009 19684.030000000002
decision_type=1 2 2 2 2 2
left_child=2 -2 -1 4 -4 -5
right_child=1 -3 3 5 -6 -7
leaf_value=-70.764024629743687 -112.25882082911208 112.37408758310954 260.14414595945073 -16.158807599625149 -97.391500997485906 271.39239336200308
leaf_weight=668 1106 34 224 526 112 180
leaf_count=668 1106 34 224 526 112 180
internal_value=-0.000820765 -0.00229366 0.000174317 0.00105848 0.00306231 0.000101838
internal_weight=2850 1140 1710 1042 336 706
internal_count=2850 1140 1710 1042 336 706
cat_boundaries=0 1
cat_threshold=22
is_linear=0
shrinkage=0.03


Tree=28
num_leaves=7
num_cat=1
split_feature=6 15 15 6 4 25
split_gain=4.67142 1.74099 2.13877 1.70707 2.65202 1.46398
threshold=5557.4991666666674 11.500000000000002 3.5000000000000004 9850.5550000000021 16493.820000000003 0
decision_type=2 2 2 2 8 1
left_child=5 2 -2 -4 -5 -1
right_child=1 -3 3 4 -6 -7
leaf_value=-15.63582787471289 -79.942422597104539 -105.2803420730222 5.9717915366011907 194.24304617105008 151.96339489130196 -169.45947595028275
leaf_weight=472 207 198 633 54 323 963
leaf_count=472 207 198 633 54 323 963
internal_value=-0.000852333 0.000370762 0.000795566 0.00136498 0.00296032 -0.0020578
internal_weight=2850 1415 1217 1010 377 1435
internal_count=2850 1415 1217 1010 377 1435
cat_boundaries=0 1
cat_threshold=20
is_linear=0
shrinkage=0.03


Tree=29
num_leaves=7
num_cat=0
split_feature=6 4 26 16 3 26
split_gain=4.76706 2.1734 2.50742 4.88573 2.45879 2.1532
threshold=4549.168333333334 5012.9150000000009 1.5000000000000002 -1.1905488693714237 15048.750000000002 3.5000000000000004
decision_type=2 8 2 2 2 2
left_child=-1 -2 3 -3 -4 -6
right_child=1 2 4 -5 5 -7
leaf_value=-146.11148194184906 145.37433062565216 449.54817660288444 -54.530486083815852 0.31951805293203078 -125.30297494998003 276.52304505296144
leaf_weight=1282 216 34 939 105 95 179
leaf_count=1282 216 34 939 105 95 179
internal_value=-0.00079972 0.000309751 -0.000137473 0.00366429 -0.000575783 0.00192
internal_weight=2850 1568 1352 139 1213 274
internal_count=2850 1568 1352 139 1213 274
is_linear=0
shrinkage=0.03


Tree=30
num_leaves=7
num_cat=0
split_feature=12 3 11 26 19 23
split_gain=4.48737 2.03605 2.08802 1.92506 3.67279 3.01063
threshold=3.0021040045517302 12705.695000000002 10.211947159405453 2.5000000000000004 -0.79876835359143084 0.26457583937361423
decision_type=2 2 2 2 2 2
left_child=-1 3 -3 4 -2 -5
right_child=1 2 -4 5 -6 -7
leaf_value=-255.32616442421988 394.10403307981142 86.312702711177053 240.71917114223717 -96.211282739203966 5.7500127566421986 20.947497808843583
leaf_weight=666 36 378 70 872 439 389
leaf_count=666 36 378 70 872 439 389
internal_value=-0.000841811 -0.000183982 0.00161693 -0.000649396 0.00097689 -0.00126228
internal_weight=2850 2184 448 1736 475 1261
internal_count=2850 2184 448 1736 475 1261
is_linear=0
shrinkage=0.03


Tree=31
num_leaves=7
num_cat=1
split_feature=12 3 23 5 25 10
split_gain=4.27076 1.89343 1.72596 2.48613 1.57192 1.41621
threshold=3.0021040045517302 4937.2900000000009 0.26457583937361423 8513.0550000000021 0 59.500000000000007
decision_type=2 2 2 2 1 2
left_child=-1 2 5 -4 -3 -2
right_child=1 4 3 -5 -6 -7
leaf_value=-247.6663794914933 -100.52839608807933 164.56664597786866 -41.586108124344328 263.20595041431318 -9.1588084905949927 41.608129068094598
leaf_weight=666 668 641 108 32 675 60
leaf_count=666 668 641 108 32 675 60
internal_value=-0.000894424 -0.000252632 -0.00133947 0.00170213 0.000464692 -0.00192593
internal_weight=2850 2184 868 140 1316 728
internal_count=2850 2184 868 140 1316 728
cat_boundaries=0 1
cat_threshold=20
is_linear=0
shrinkage=0.03


Tree=32
num_leaves=7
num_cat=0
split_feature=12 3 11 19 26 4
split_gain=4.18562 1.91531 2.38651 1.24228 1.75726 2.88928
threshold=3.0021040045517302 8387.5000000000018 19.583444980071175 -0.6281516225789 1.5000000000000002 20315.625000000004
decision_type=2 2 2 2 2 10
left_child=-1 3 -3 -2 5 -5
right_child=1 2 -4 4 -6 -7
leaf_value=-240.23638810674851 18.152374169487477 13.426223399136342 199.17831117303382 -46.091230359247817 -87.34757499746685 184.0521818928618
leaf_weight=666 314 807 78 106 849 30
leaf_count=666 314 807 78 106 849 30
internal_value=-0.000915469 -0.000280092 0.00079571 -0.00101308 -0.00153651 0.00162044
internal_weight=2850 2184 885 1299 985 136
internal_count=2850 2184 885 1299 985 136
is_linear=0
shrinkage=0.03


Tree=33
num_leaves=7
num_cat=0
split_feature=12 17 3 11 26 19
split_gain=4.22808 1.92603 1.73232 2.57772 2.13907 2.2096
threshold=3.0021040045517302 0.031669385090665976 12514.030000000001 8.040905640704592 3.5000000000000004 -0.76156803599606604
decision_type=2 2 2 2 2 2
left_child=-1 2 4 -4 5 -2
right_child=1 -3 3 -5 -6 -7
leaf_value=-233.02929646354605 310.38293390874202 -66.891745740584852 116.38535916573322 227.98041732016947 -63.293154921852278 11.626863240693343
leaf_weight=666 54 604 270 87 692 477
leaf_count=666 54 604 270 87 692 477
internal_value=-0.000904946 -0.000266362 0.000284629 0.00212011 -0.000252452 0.00117857
internal_weight=2850 2184 1580 357 1223 531
internal_count=2850 2184 1580 357 1223 531
is_linear=0
shrinkage=0.03


Tree=34
num_leaves=7
num_cat=0
split_feature=12 3 17 11 26 23
split_gain=4.27076 1.87613 1.40949 2.26713 3.25779 3.68612
threshold=3.0021040045517302 4997.085 0.031669385090665976 8.040905640704592 2.5000000000000004 0.0052106555333017446
decision_type=2 2 2 2 2 2
left_child=-1 -2 3 -3 5 -5
right_child=1 2 -4 4 -6 -7
leaf_value=-226.03841756963965 -64.560840504890649 -0.96072140178155419 -46.712680191510842 328.22882144263133 60.128337099835164 -13.843458782725792
leaf_weight=666 878 710 261 68 236 31
leaf_count=666 878 710 261 68 236 31
internal_value=-0.000894424 -0.000252632 0.000468247 0.000960802 0.00299107 0.00753
internal_weight=2850 2184 1306 1045 335 99
internal_count=2850 2184 1306 1045 335 99
is_linear=0
shrinkage=0.03


Tree=35
num_leaves=7
num_cat=0
split_feature=12 3 11 17 10 2
split_gain=4.27076 1.81883 2.03614 1.20519 2.13691 1.54658
threshold=3.0021040045517302 8387.5000000000018 19.583444980071175 -0.073793768738991614 58.833333333333336 15412.085000000001
decision_type=2 2 2 2 2 2
left_child=-1 3 -3 4 -2 -5
right_child=1 2 -4 5 -6 -7
leaf_value=-219.25726504255044 -25.783186416925407 15.679065304683833 183.00729129734313 -71.78407325906835 182.28786245949428 53.34203356848959
leaf_weight=666 220 807 78 924 46 109
leaf_count=666 220 807 78 924 46 109
internal_value=-0.000894424 -0.000252632 0.00079571 -0.000966924 0.00083146 -0.00143037
internal_weight=2850 2184 885 1299 266 1033
internal_count=2850 2184 885 1299 266 1033
is_linear=0
shrinkage=0.03


Tree=36
num_leaves=7
num_cat=0
split_feature=12 3 17 11 26 23
split_gain=4.08986 1.82838 1.37684 2.1338 2.96222 3.43319
threshold=3.0021040045517302 4997.085 0.031669385090665976 8.040905640704592 2.5000000000000004 0.0052106555333017446
decision_type=2 2 2 2 2 2
left_child=-1 -2 3 -3 5 -5
right_child=1 2 -4 4 -6 -7
leaf_value=-212.67954709127395 -60.47049309197191 -1.1399266571621618 -45.781671744906056 318.78229411332524 55.34418623005056 -18.918373758164378
leaf_weight=666 878 710 261 68 236 31
leaf_count=666 878 710 261 68 236 31
internal_value=-0.000894424 -0.000266362 0.000445294 0.000932122 0.00290179 0.00723
internal_weight=2850 2184 1306 1045 335 99
internal_count=2850 2184 1306 1045 335 99
is_linear=0
shrinkage=0.03


Tree=37
num_leaves=7
num_cat=0
split_feature=12 3 26 17 23 5
split_gain=3.75049 1.83208 2.20947 2.47159 2.41337 2.17002
threshold=3.5372457432505366 12705.695000000002 3.5000000000000004 -0.059679914140631833 0.5477955856471266 6358.3316666666678
decision_type=2 2 2 2 2 2
left_child=-1 2 3 -2 -4 -6
right_child=1 -3 4 -5 5 -7
leaf_value=-191.24096243634821 161.24772735134528 116.21021539968945 -90.787473734828851 -17.565394783725537 -14.102349984561419 170.7335092402314
leaf_weight=728 233 442 839 485 87 36
leaf_count=728 233 442 839 485 87 36
internal_value=-0.000810243 -0.000172398 -0.000624629 0.000634213 -0.00156386 0.00234677
internal_weight=2850 2122 1680 718 962 123
internal_count=2850 2122 1680 718 962 123
is_linear=0
shrinkage=0.03


Tree=38
num_leaves=7
num_cat=0
split_feature=6 4 26 23 19 3
split_gain=3.9133 2.13682 2.3727 4.53494 3.94168 2.19571
threshold=4549.168333333334 5012.9150000000009 1.5000000000000002 0.00010388285272917109 0.80402389839014587 20014.165000000005
decision_type=2 8 2 2 2 2
left_child=-1 -2 3 4 -3 -4
right_child=1 2 5 -5 -6 -7
leaf_value=-137.60596589928224 124.77800124158301 107.96762638413824 -38.939582093000269 -101.50242596193422 354.39508130119549 238.71686512677434
leaf_weight=1282 216 44 1044 63 32 169
leaf_count=1282 216 44 1044 63 32 169
internal_value=-0.000810243 0.000195028 -0.000248338 0.00345 0.00833766 -0.00067463
internal_weight=2850 1568 1352 139 76 1213
internal_count=2850 1568 1352 139 76 1213
is_linear=0
shrinkage=0.03


Tree=39
num_leaves=7
num_cat=0
split_feature=6 17 7 0 26 10
split_gain=3.79787 2.38559 2.1926 2.03141 2.49371 1.48904
threshold=7557.291666666667 -0.080292847548475363 5650.4276880609814 242.08499999999995 4.5000000000000009 58.833333333333336
decision_type=2 2 2 2 2 2
left_child=1 3 -2 -1 5 -5
right_child=2 -3 -4 4 -6 -7
leaf_value=-96.734247719387852 105.87146792448954 -104.21510975677116 -63.612757504407462 154.28758946169361 -62.501334190867794 324.10789272394021
leaf_weight=165 620 1442 365 132 91 35
leaf_count=165 620 1442 365 132 91 35
internal_value=-0.000852333 -0.00164791 0.000654158 0.000332546 0.00199228 0.00416071
internal_weight=2850 1865 985 423 258 167
internal_count=2850 1865 985 423 258 167
is_linear=0
shrinkage=0.03


Tree=40
num_leaves=7
num_cat=0
split_feature=6 15 0 26 23 15
split_gain=3.74064 1.54662 1.87228 3.22259 3.2039 2.92006
threshold=1287.1291666666668 10.500000000000002 7311.670000000001 2.5000000000000004 0.0014685825570232534 5.5000000000000009
decision_type=2 2 2 2 2 2
left_child=-1 2 -2 -4 -5 -6
right_child=1 -3 3 4 5 -7
leaf_value=-178.24910129357619 -21.028707159764668 -82.500912801757011 183.26628501057269 -53.15466108644322 94.612968762842669 283.19549096232367
leaf_weight=806 896 468 150 312 182 36
leaf_count=806 896 468 150 312 182 36
internal_value=-0.000820765 -0.000137898 0.000311984 0.0014978 0.00039548 0.00317808
internal_weight=2850 2044 1576 680 530 218
internal_count=2850 2044 1576 680 530 218
is_linear=0
shrinkage=0.03


Tree=41
num_leaves=7
num_cat=1
split_feature=25 8 15 15 5 11
split_gain=3.42611 3.14832 1.56074 2.28797 3.93572 2.34381
threshold=0 9241.8534884619803 3.5000000000000004 9.5000000000000018 9742.7766666666685 8.4482720909656717
decision_type=1 2 2 2 2 2
left_child=2 -2 -1 4 -4 -6
right_child=1 -3 3 -5 5 -7
leaf_value=-183.11467135039305 -111.99028002902827 63.99266088134906 11.134399819365015 -53.520621664602508 187.96332014026692 310.4756091618118
leaf_weight=180 1065 75 856 540 67 67
leaf_count=180 1065 75 856 540 67 67
internal_value=-0.000873378 -0.00213727 -1.74324e-05 0.000293925 0.00115035 0.00591111
internal_weight=2850 1140 1710 1530 990 134
internal_count=2850 1140 1710 1530 990 134
cat_boundaries=0 1
cat_threshold=22
is_linear=0
shrinkage=0.03


Tree=42
num_leaves=7
num_cat=0
split_feature=6 7 17 26 0 11
split_gain=3.35141 1.79979 1.79854 1.60983 2.33506 1.26168
threshold=7557.291666666667 5650.4276880609814 -0.080292847548475363 4.5000000000000009 4914.0300000000007 19.583444980071175
decision_type=2 2 2 2 2 2
left_child=2 5 3 4 -1 -2
right_child=1 -3 -4 -5 -6 -7
leaf_value=-2.1244937754654165 52.665748505248658 -57.623728745284431 -97.657998604987156 -78.043494687829195 296.37539757118594 216.52732587921028
leaf_weight=202 543 365 1442 149 72 77
leaf_count=202 543 365 1442 149 72 77
internal_value=-0.000852333 0.00056288 -0.00159968 0.000120282 0.00148364 0.00154589
internal_weight=2850 985 1865 423 274 620
internal_count=2850 985 1865 423 274 620
is_linear=0
shrinkage=0.03


Tree=43
num_leaves=7
num_cat=0
split_feature=12 3 11 2 6 26
split_gain=3.34654 1.66379 2.06618 1.29963 1.72577 1.05899
threshold=3.0021040045517302 8659.1650000000027 19.583444980071175 15412.085000000001 12380.974166666669 3.5000000000000004
decision_type=2 2 2 2 2 2
left_child=-1 3 -3 5 -5 -2
right_child=1 2 -4 4 -6 -7
leaf_value=-181.67037813793593 -4.8624260378432629 12.416483894176448 144.10914309990858 139.68677767710324 -7.2077704144330035 -86.598191503896558
leaf_weight=666 528 790 78 37 81 670
leaf_count=666 528 790 78 37 81 670
internal_value=-0.000820765 -0.000252632 0.000766397 -0.00092483 0.00206723 -0.00122102
internal_weight=2850 2184 868 1316 118 1198
internal_count=2850 2184 868 1316 118 1198
is_linear=0
shrinkage=0.03


Tree=44
num_leaves=7
num_cat=0
split_feature=12 17 6 8 2 6
split_gain=3.30877 1.65782 1.27976 2.03643 1.87277 1.64055
threshold=3.0021040045517302 0.074999699816574963 9850.5550000000021 4549.8332538662953 9975.0000000000018 10437.361666666668
decision_type=2 2 2 2 2 2
left_child=-1 2 -2 4 -4 -5
right_child=1 -3 3 5 -6 -7
leaf_value=-176.22026679379783 -8.8646785051881398 -66.516054407659212 110.37578870215846 243.76497987123 28.722130139997009 7.0561903573432305
leaf_weight=666 1286 338 30 32 34 464
leaf_count=666 1286 338 30 32 34 464
internal_value=-0.000831288 -0.000266362 8.77091e-05 0.00128342 0.00627692 0.000627766
internal_weight=2850 2184 1846 560 64 496
internal_count=2850 2184 1846 560 64 496
is_linear=0
shrinkage=0.03


Tree=45
num_leaves=7
num_cat=0
split_feature=12 17 15 11 26 20
split_gain=3.30877 1.65782 1.20676 2.77897 1.79219 2.49294
threshold=3.0021040045517302 0.074999699816574963 9.5000000000000018 19.583444980071175 1.5000000000000002 0.078417556422505155
decision_type=2 2 2 2 2 2
left_child=-1 2 3 -2 5 -4
right_child=1 -3 4 -5 -6 -7
leaf_value=-170.93365878998389 6.6931157378117261 -64.5205727754294 -16.152593482149726 512.4017640107387 -89.042585593425287 132.90965213313459
leaf_weight=666 1262 338 49 56 440 39
leaf_count=666 1262 338 49 56 440 39
internal_value=-0.000831288 -0.000266362 8.77091e-05 0.000573161 -0.00112287 0.00276404
internal_weight=2850 2184 1846 1318 528 88
internal_count=2850 2184 1846 1318 528 88
is_linear=0
shrinkage=0.03


Tree=46
num_leaves=7
num_cat=0
split_feature=12 3 26 16 23 1
split_gain=3.23387 1.69647 1.65984 2.34118 2.01373 2.71578
threshold=3.0021040045517302 12514.030000000001 3.5000000000000004 -0.97415392577448956 0.5477955856471266 9268.3350000000009
decision_type=2 2 2 2 2 2
left_child=-1 2 3 -2 -4 -6
right_child=1 -3 4 -5 5 -7
leaf_value=-165.80564902628439 133.55774553230046 88.359411812868331 -82.425900529516653 -17.312610509611506 -5.3245633028520878 145.81187421020095
leaf_weight=666 268 457 860 464 105 30
leaf_count=666 268 457 860 464 105 30
internal_value=-0.000852333 -0.000293822 -0.000723959 0.000360163 -0.00152109 0.001875
internal_weight=2850 2184 1727 732 995 135
internal_count=2850 2184 1727 732 995 135
is_linear=0
shrinkage=0.03


Tree=47
num_leaves=7
num_cat=0
split_feature=12 3 26 16 23 1
split_gain=3.38452 1.58412 1.90339 2.03323 1.73532 2.22053
threshold=3.0021040045517302 12705.695000000002 3.5000000000000004 -0.97415392577448956 0.5477955856471266 9268.3350000000009
decision_type=2 2 2 2 2 2
left_child=-1 2 3 -2 -4 -6
right_child=1 -3 4 -5 5 -7
leaf_value=-160.83147955549586 129.55101316633144 89.319015654616351 -79.64200058506556 -15.565473984599764 -5.1648264037665044 141.43751798389491
leaf_weight=666 268 448 866 467 105 30
leaf_count=666 268 448 866 467 105 30
internal_value=-0.000810243 -0.000238902 -0.000649396 0.00050951 -0.0015 0.00165441
internal_weight=2850 2184 1736 735 1001 135
internal_count=2850 2184 1736 735 1001 135
is_linear=0
shrinkage=0.03


Tree=48
num_leaves=7
num_cat=0
split_feature=6 15 0 26 16 23
split_gain=3.44916 1.42897 1.50581 3.30675 3.18983 2.31684
threshold=1287.1291666666668 10.500000000000002 7495.6250000000009 2.5000000000000004 -1.0768806096296644 0.0014685825570232534
decision_type=2 2 2 2 2 2
left_child=-1 2 -2 4 -4 -5
right_child=1 -3 3 5 -6 -7
leaf_value=-150.60653516883096 -17.959880175294124 -75.423948447462195 385.51549824581281 -44.160788167536396 40.095923128442131 124.29805053392653
leaf_weight=806 927 468 40 307 103 199
leaf_count=806 927 468 40 307 103 199
internal_value=-0.000852333 -0.000196578 0.00023589 0.00134308 0.00535417 0.000201183
internal_weight=2850 2044 1576 649 143 506
internal_count=2850 2044 1576 649 143 506
is_linear=0
shrinkage=0.03


Tree=49
num_leaves=7
num_cat=1
split_feature=25 8 15 11 15 5
split_gain=3.23319 3.87901 1.42957 2.34656 1.98898 1.36163
threshold=0 9063.7472124950673 9.5000000000000018 19.583444980071175 3.5000000000000004 9742.7766666666685
decision_type=1 2 2 2 2 2
left_child=2 -2 3 4 -1 -6
right_child=1 -3 -4 -5 5 -7
leaf_value=-182.21370588529049 -101.1753781936718 56.88760841994722 -47.146164672797653 482.77068642942891 11.769892998931871 151.22758409602045
leaf_weight=175 1056 84 540 56 844 95
leaf_count=175 1056 84 540 56 844 95
internal_value=-0.000831288 -0.00205908 -7.10684e-10 0.000589239 0.000285201 0.000832978
internal_weight=2850 1140 1710 1170 1114 939
internal_count=2850 1140 1710 1170 1114 939
cat_boundaries=0 1
cat_threshold=22
is_linear=0
shrinkage=0.03


Tree=50
num_leaves=7
num_cat=0
split_feature=12 3 26 16 23 1
split_gain=3.10314 1.48086 1.69832 2.17243 1.69418 2.22053
threshold=3.0021040045517302 12514.030000000001 3.5000000000000004 -0.97415392577448956 0.5477955856471266 9268.3350000000009
decision_type=2 2 2 2 2 2
left_child=-1 2 3 -2 -4 -6
right_child=1 -3 4 -5 5 -7
leaf_value=-148.45307776795593 119.86468559605255 77.784515270492548 -73.988763819776892 -13.650467821701946 -3.8668359918300665 135.74350862274875
leaf_weight=666 268 457 860 464 105 30
leaf_count=666 268 457 860 464 105 30
internal_value=-0.00079972 -0.000252632 -0.000654515 0.000442018 -0.00146084 0.00165441
internal_weight=2850 2184 1727 732 995 135
internal_count=2850 2184 1727 732 995 135
is_linear=0
shrinkage=0.03


Tree=51
num_leaves=7
num_cat=1
split_feature=6 25 10 15 26 15
split_gain=3.46522 1.55672 1.63303 1.49727 1.48168 5.76203
threshold=4549.168333333334 0 58.833333333333336 11.500000000000002 1.5000000000000002 8.5000000000000018
decision_type=2 1 2 2 2 2
left_child=1 2 -1 4 5 -2
right_child=3 -3 -4 -5 -6 -7
leaf_value=-26.978087355449937 -172.79454435475009 -141.65180549859943 130.44940696079735 -98.196645954484453 5.4047755483864854 225.31795537603145
leaf_weight=384 66 826 72 216 1213 73
leaf_count=384 66 826 72 216 1213 73
internal_value=-0.000789197 -0.00194544 -0.000488223 0.000156787 0.000527715 0.00345
internal_weight=2850 1282 456 1568 1352 139
internal_count=2850 1282 456 1568 1352 139
cat_boundaries=0 1
cat_threshold=22
is_linear=0
shrinkage=0.03


Tree=52
num_leaves=7
num_cat=1
split_feature=6 15 5 15 25 8
split_gain=3.18911 1.52753 1.6159 1.93051 1.88378 1.54605
threshold=1287.1291666666668 10.500000000000002 9742.7766666666685 3.5000000000000004 0 9063.7472124950673
decision_type=2 2 2 2 1 2
left_child=-1 2 4 -4 -2 -6
right_child=1 -3 3 -5 5 -7
leaf_value=-135.99890274672424 117.18342284503045 -72.904139988255267 -29.674510794064407 101.83260609497243 -46.87190551741638 62.587229503393083
leaf_weight=806 561 468 135 256 589 35
leaf_count=806 561 468 135 256 589 35
internal_value=-0.000841811 -0.000211248 0.00023589 0.00190561 -0.00031619 -0.00143622
internal_weight=2850 2044 1576 391 1185 624
internal_count=2850 2044 1576 391 1185 624
cat_boundaries=0 1
cat_threshold=20
is_linear=0
shrinkage=0.03


Tree=53
num_leaves=7
num_cat=1
split_feature=25 8 15 15 5 11
split_gain=3.18051 3.38551 1.50921 2.08395 2.86755 1.80881
threshold=0 9063.7472124950673 9.5000000000000018 3.5000000000000004 9742.7766666666685 6.5522658633462436
decision_type=1 2 2 2 2 2
left_child=2 -2 3 -1 -5 -6
right_child=1 -3 -4 4 5 -7
leaf_value=-170.83552553494692 -92.196717215328135 51.671788495597831 -45.434067036733509 12.88877733729792 13.400944192164168 245.55106592831874
leaf_weight=180 1056 84 540 856 45 89
leaf_count=180 1056 84 540 856 45 89
internal_value=-0.000789197 -0.00200695 3.48627e-05 0.000640478 0.00118062 0.00524444
internal_weight=2850 1140 1710 1170 990 134
internal_count=2850 1140 1710 1170 990 134
cat_boundaries=0 1
cat_threshold=22
is_linear=0
shrinkage=0.03


Tree=54
num_leaves=7
num_cat=1
split_feature=25 8 15 15 5 11
split_gain=3.1258 3.38551 1.46912 2.0481 2.60303 1.64881
threshold=0 9063.7472124950673 9.5000000000000018 3.5000000000000004 9742.7766666666685 6.5522658633462436
decision_type=1 2 2 2 2 2
left_child=2 -2 3 -1 -5 -6
right_child=1 -3 -4 4 5 -7
leaf_value=-165.71045976889852 -89.430815698868301 50.121634840729897 -44.07104502563147 12.502114017178979 12.99891586639929 238.18453395046922
leaf_weight=180 1056 84 540 856 45 89
leaf_count=180 1056 84 540 856 45 89
internal_value=-0.00079972 -0.00200695 1.7431e-05 0.000614858 0.00115035 0.00502222
internal_weight=2850 1140 1710 1170 990 134
internal_count=2850 1140 1710 1170 990 134
cat_boundaries=0 1
cat_threshold=22
is_linear=0
shrinkage=0.03


Tree=55
num_leaves=7
num_cat=1
split_feature=25 8 15 15 5 12
split_gain=3.23567 3.38551 1.35299 1.83137 2.35942 1.54036
threshold=0 9063.7472124950673 10.500000000000002 3.5000000000000004 9742.7766666666685 10.39469005611595
decision_type=1 2 2 2 2 2
left_child=2 -2 3 -1 -5 -6
right_child=1 -3 -4 4 5 -7
leaf_value=-160.73914597583158 -86.74789122790223 48.617985795508019 -73.78752804950345 7.1866206602323022 206.32850448998317 32.58866732906025
leaf_weight=180 1056 84 360 970 105 95
leaf_count=180 1056 84 360 970 105 95
internal_value=-0.000778675 -0.00200695 5.22945e-05 0.000488526 0.000922288 0.0038806
internal_weight=2850 1140 1710 1350 1170 200
internal_count=2850 1140 1710 1350 1170 200
cat_boundaries=0 1
cat_threshold=22
is_linear=0
shrinkage=0.03


Tree=56
num_leaves=7
num_cat=1
split_feature=25 8 15 15 5 26
split_gain=3.23567 2.98305 1.26638 1.93204 2.3513 1.70228
threshold=0 9063.7472124950673 3.5000000000000004 9.5000000000000018 9742.7766666666685 1.5000000000000002
decision_type=1 2 2 2 2 2
left_child=2 -2 -1 4 -4 -5
right_child=1 -3 3 5 -6 -7
leaf_value=-155.91697159655661 -84.145454491065138 47.159446221642796 11.911451976856675 39.082581726638011 153.55224085167507 -87.778513661352321
leaf_weight=180 1056 84 856 90 134 450
leaf_count=180 1056 84 856 90 134 450
internal_value=-0.000778675 -0.00200695 5.22945e-05 0.000333115 0.00112008 -0.00110906
internal_weight=2850 1140 1710 1530 990 540
internal_count=2850 1140 1710 1530 990 540
cat_boundaries=0 1
cat_threshold=22
is_linear=0
shrinkage=0.03


Tree=57
num_leaves=7
num_cat=0
split_feature=12 17 6 26 19 7
split_gain=3.13972 1.49587 1.49092 2.0911 1.75333 1.42854
threshold=3.0021040045517302 0.031669385090665976 9850.5550000000021 4.5000000000000009 -0.6281516225789 8617.8618468745171
decision_type=2 2 2 2 2 2
left_child=-1 2 3 4 -2 -6
right_child=1 -3 -4 -5 5 -7
leaf_value=-126.11527107989991 150.11245693813615 -42.409652685135995 62.514280414483288 -82.858866696462414 -20.815758950592897 91.695083398321643
leaf_weight=666 191 604 453 423 473 40
leaf_count=666 191 604 453 423 473 40
internal_value=-0.000789197 -0.000238902 0.000246679 -0.000337767 0.000663829 -0.000250973
internal_weight=2850 2184 1580 1127 704 513
internal_count=2850 2184 1580 1127 704 513
is_linear=0
shrinkage=0.03


Tree=58
num_leaves=7
num_cat=0
split_feature=12 17 1 3 26 26
split_gain=2.98489 1.38899 1.15222 1.18772 3.54708 1.56265
threshold=3.0021040045517302 0.074999699816574963 -5999.1649999999991 23093.335000000003 4.5000000000000009 4.5000000000000009
decision_type=2 2 2 2 2 2
left_child=-1 2 -2 5 -5 -4
right_child=1 -3 3 4 -6 -7
leaf_value=-122.33181294750293 43.688377353404647 -44.689690284590583 13.103100199744485 -349.16367586637438 417.78835995139576 -51.068577618018885
leaf_weight=666 30 338 1019 57 46 694
leaf_count=666 30 338 1019 57 46 694
internal_value=-0.000789197 -0.000252632 7.14665e-05 -2.64179e-05 0.00308654 -0.000215287
internal_weight=2850 2184 1846 1816 103 1713
internal_count=2850 2184 1846 1816 103 1713
is_linear=0
shrinkage=0.03


Tree=59
num_leaves=7
num_cat=1
split_feature=25 8 17 26 8 5
split_gain=2.88658 2.95423 1.23935 3.26102 1.38737 1.1114
threshold=0 9063.7472124950673 -0.088175693254417806 4.5000000000000009 4263.1070648612422 11981.668333333335
decision_type=1 2 2 2 2 2
left_child=2 5 3 4 -1 -2
right_child=1 -3 -4 -5 -6 -7
leaf_value=107.90977492132488 -93.217213040062433 50.793169720443039 -9.3290025753902288 -202.20555102157024 357.48263459339307 29.95875151249901
leaf_weight=112 997 84 1460 90 48 59
leaf_count=112 997 84 1460 90 48 59
internal_value=-0.000820765 -0.00198089 -3.48642e-05 0.00191235 0.00447205 -0.00242952
internal_weight=2850 1140 1710 250 160 1056
internal_count=2850 1140 1710 250 160 1056
cat_boundaries=0 1
cat_threshold=22
is_linear=0
shrinkage=0.03


Tree=60
num_leaves=7
num_cat=1
split_feature=6 25 4 22 26 26
split_gain=3.08391 1.70381 1.53771 1.75107 2.39541 1.32047
threshold=4549.168333333334 0 5012.9150000000009 2.8597274947310729 2.5000000000000004 4.5000000000000009
decision_type=2 1 8 2 2 2
left_child=1 -1 5 -4 -5 -2
right_child=2 -3 3 4 -6 -7
leaf_value=-113.6941414948077 143.15846731603926 2.5540511043009069 -28.111962208064604 204.77586116267727 6.5336724468581053 -8.0516968974288865
leaf_weight=1030 144 252 1096 58 198 72
leaf_count=1030 144 252 1096 58 198 72
internal_value=-0.000831288 -0.00192206 6.11848e-05 -0.000314857 0.0019144 0.00240553
internal_weight=2850 1282 1568 1352 256 216
internal_count=2850 1282 1568 1352 256 216
cat_boundaries=0 1
cat_threshold=25
is_linear=0
shrinkage=0.03


Tree=61
num_leaves=7
num_cat=1
split_feature=6 25 10 4 26 16
split_gain=2.88238 1.86042 1.48091 1.2186 1.9052 3.86686
threshold=4549.168333333334 0 58.833333333333336 5012.9150000000009 1.5000000000000002 -1.1905488693714237
decision_type=2 1 2 8 2 2
left_child=1 2 -1 -2 5 -5
right_child=3 -3 -4 4 -6 -7
leaf_value=-24.802508988555395 94.177355069959802 -111.43358467169448 122.95371991824219 318.35470788347561 -24.522007306234656 -3.9042452970275749
leaf_weight=384 216 826 72 34 1213 105
leaf_count=384 216 826 72 34 1213 105
internal_value=-0.000820765 -0.00187529 -0.000295504 4.20643e-05 -0.000292684 0.00302143
internal_weight=2850 1282 456 1568 1352 139
internal_count=2850 1282 456 1568 1352 139
cat_boundaries=0 1
cat_threshold=22
is_linear=0
shrinkage=0.03


Tree=62
num_leaves=7
num_cat=0
split_feature=12 3 2 23 17 22
split_gain=2.66237 1.20325 1.35266 1.44219 1.07104 1.64607
threshold=3.0021040045517302 4937.2900000000009 11039.030000000001 0.011014953703498254 -0.088175693254417806 1.7038480474405906
decision_type=2 2 2 2 2 2
left_child=-1 2 4 -4 5 -2
right_child=1 -3 3 -5 -6 -7
leaf_value=-110.13237888935613 -126.36253725719331 3.9919999642839876 -13.683761386413014 184.64635451940509 -96.53850617606038 132.68232372155299
leaf_weight=666 79 1316 161 34 552 42
leaf_count=666 79 1316 161 34 552 42
internal_value=-0.000841811 -0.000335012 -0.00120138 0.000994897 -0.00183828 0.000713114
internal_weight=2850 2184 868 195 673 121
internal_count=2850 2184 868 195 673 121
is_linear=0
shrinkage=0.03


Tree=63
num_leaves=7
num_cat=1
split_feature=6 25 23 22 26 15
split_gain=2.65172 1.68198 1.31415 1.12773 3.76729 1.07534
threshold=3361.9483333333337 0 0.26457583937361423 2.8597274947310729 1.5000000000000002 10.500000000000002
decision_type=2 1 2 2 2 2
left_child=1 -1 -3 5 -5 -2
right_child=3 2 -4 4 -6 -7
leaf_value=-116.30914180294853 -0.36200028558239006 -4.4235492366675357 58.382581347031099 309.69802467195103 10.751543881931424 -64.335393425783735
leaf_weight=931 1118 102 61 34 262 342
leaf_count=931 1118 102 61 34 262 342
internal_value=-0.000852333 -0.00201096 0.000810344 -0.000129767 0.00155555 -0.00047228
internal_weight=2850 1094 163 1756 296 1460
internal_count=2850 1094 163 1756 296 1460
cat_boundaries=0 1
cat_threshold=25
is_linear=0
shrinkage=0.03


Tree=64
num_leaves=7
num_cat=0
split_feature=12 15 0 26 16 23
split_gain=2.55211 1.24125 1.63638 2.98128 2.80142 1.69918
threshold=1.8970052757711338 10.500000000000002 9277.5000000000018 2.5000000000000004 -1.0768806096296644 0.00010388285272917109
decision_type=2 2 2 2 2 2
left_child=-1 2 -2 4 -4 -5
right_child=1 -3 3 5 -6 -7
leaf_value=-145.39733151077445 -17.932161256523177 -63.105680840304238 321.38695484161741 -31.358234306231743 23.64727121348745 100.17396175181428
leaf_weight=561 1289 486 36 252 73 153
leaf_count=561 1289 486 36 252 73 153
internal_value=-0.000862856 -0.000417905 -5.48788e-05 0.00137476 0.00575454 0.000184728
internal_weight=2850 2289 1803 514 109 405
internal_count=2850 2289 1803 514 109 405
is_linear=0
shrinkage=0.03


Tree=65
num_leaves=7
num_cat=1
split_feature=25 8 17 26 8 3
split_gain=2.83687 2.89701 1.57168 4.30339 1.32231 1.10349
threshold=0 9063.7472124950673 -0.073793768738991614 3.5000000000000004 2108.2527426685533 19606.530000000002
decision_type=1 2 2 2 2 2
left_child=2 -2 3 4 -1 -4
right_child=1 -3 5 -5 -6 -7
leaf_value=94.876918035762358 -64.442939057681073 61.834252397733593 -21.576549041758771 -94.366383300747358 338.39020635032989 209.20259674982745
leaf_weight=63 1056 84 1208 160 87 192
leaf_count=63 1056 84 1208 160 87 192
internal_value=-0.000778675 -0.00192876 -7.10684e-10 0.00192926 0.00556291 -0.000428266
internal_weight=2850 1140 1710 310 150 1400
internal_count=2850 1140 1710 310 150 1400
cat_boundaries=0 1
cat_threshold=22
is_linear=0
shrinkage=0.03


Tree=66
num_leaves=7
num_cat=1
split_feature=3 2 11 26 23 25
split_gain=2.70885 1.65013 1.28861 2.56324 1.27419 1.16248
threshold=6182.2250000000013 15412.085000000001 9.5489917962197222 2.5000000000000004 0.26457583937361423 0
decision_type=2 2 2 2 2 1
left_child=1 -1 5 -4 -5 -2
right_child=2 -3 3 4 -6 -7
leaf_value=-77.726215132056126 112.73835002677573 65.240127732549411 106.87558134141479 -27.258479853240644 100.4748209751311 -30.838293992255295
leaf_weight=1521 373 90 97 186 60 523
leaf_count=1521 373 90 97 186 60 523
internal_value=-0.000810243 -0.00162097 0.000244354 0.00180523 0.00017004 -0.000354516
internal_weight=2850 1611 1239 343 246 896
internal_count=2850 1611 1239 343 246 896
cat_boundaries=0 1
cat_threshold=20
is_linear=0
shrinkage=0.03


Tree=67
num_leaves=7
num_cat=1
split_feature=25 3 2 6 4 26
split_gain=2.72361 1.03231 1.41548 1.13386 1.03318 1.95649
threshold=0 6631.3900000000012 15412.085000000001 12380.974166666669 6962.5000000000009 4.5000000000000009
decision_type=1 2 2 2 8 2
left_child=-1 2 -2 -4 5 -3
right_child=1 4 3 -5 -6 -7
leaf_value=-149.46213869757165 -40.633176059529305 116.54462558562975 107.56661893623088 -14.529004215758873 -2.8887296021569737 -10.07187687554306
leaf_weight=570 1073 152 37 61 881 76
leaf_count=570 1073 152 37 61 881 76
internal_value=-0.00079972 -0.000327369 -0.000949659 0.00248485 0.000327026 0.00212227
internal_weight=2850 2280 1171 98 1109 228
internal_count=2850 2280 1171 98 1109 228
cat_boundaries=0 1
cat_threshold=8
is_linear=0
shrinkage=0.03


Tree=68
num_leaves=7
num_cat=1
split_feature=25 15 0 26 4 10
split_gain=2.59903 1.0417 1.37115 2.70489 1.43643 1.38624
threshold=0 10.500000000000002 9277.5000000000018 1.5000000000000002 5012.9150000000009 58.833333333333336
decision_type=1 2 2 2 8 2
left_child=-1 2 5 -4 -5 -2
right_child=1 -3 3 4 -6 -7
leaf_value=-144.97827453664448 -28.410030420114914 -57.714775163832606 242.94427120341155 161.4181666493084 -0.19037305567669213 32.611964370244863
leaf_weight=570 1108 480 53 45 416 178
leaf_count=570 1108 480 53 45 416 178
internal_value=-0.000841811 -0.000379748 -4.9973e-05 0.00125825 0.000512986 -0.000573427
internal_weight=2850 2280 1800 514 461 1286
internal_count=2850 2280 1800 514 461 1286
cat_boundaries=0 1
cat_threshold=8
is_linear=0
shrinkage=0.03


Tree=69
num_leaves=7
num_cat=1
split_feature=25 3 26 26 23 15
split_gain=2.53776 1.03012 2.77974 1.05055 3.00695 2.21754
threshold=0 23093.335000000003 4.5000000000000009 4.5000000000000009 0.96436632489224039 5.5000000000000009
decision_type=1 2 2 2 2 2
left_child=-1 3 -3 5 -5 -2
right_child=1 2 -4 4 -6 -7
leaf_value=-140.62892630054512 -130.73276717759219 -345.12007718298776 395.94211698977699 -56.103881022819813 140.1572287100428 12.76519828506267
leaf_weight=570 191 57 46 834 40 1112
leaf_count=570 191 57 46 834 40 1112
internal_value=-0.000862856 -0.000405937 0.00250961 -0.000546833 -0.00135086 -6.90256e-06
internal_weight=2850 2280 103 2177 874 1303
internal_count=2850 2280 103 2177 874 1303
cat_boundaries=0 1
cat_threshold=8
is_linear=0
shrinkage=0.03


Tree=70
num_leaves=7
num_cat=1
split_feature=25 3 26 26 23 15
split_gain=2.56831 1.02087 2.77974 0.997636 2.98113 2.21754
threshold=0 23093.335000000003 4.5000000000000009 4.5000000000000009 0.96436632489224039 5.5000000000000009
decision_type=1 2 2 2 2 2
left_child=-1 3 -3 5 -5 -2
right_child=1 2 -4 4 -6 -7
leaf_value=-136.41005851152877 -126.8107841622644 -334.76647486749818 384.06385348008371 -54.420764592135214 135.95251184874155 12.382242336510808
leaf_weight=570 191 57 46 834 40 1112
leaf_count=570 191 57 46 834 40 1112
internal_value=-0.000852333 -0.000392842 0.00250961 -0.000533059 -0.00131657 -6.90256e-06
internal_weight=2850 2280 103 2177 874 1303
internal_count=2850 2280 103 2177 874 1303
cat_boundaries=0 1
cat_threshold=8
is_linear=0
shrinkage=0.03


Tree=71
num_leaves=7
num_cat=1
split_feature=25 15 0 26 16 23
split_gain=2.59903 1.0417 1.13781 1.92773 2.3797 1.97609
threshold=0 10.500000000000002 9277.5000000000018 2.5000000000000004 -1.0768806096296644 0.00010388285272917109
decision_type=1 2 2 2 2 2
left_child=-1 2 -2 4 -4 -5
right_child=1 -3 3 5 -6 -7
leaf_value=-132.31775675618292 -15.734865241594184 -56.737755127564753 290.34334171541946 -24.161677922461188 21.130634528052436 92.799661888227959
leaf_weight=570 1286 480 36 252 73 153
leaf_count=570 1286 480 36 252 73 153
internal_value=-0.000841811 -0.000379748 -4.9973e-05 0.00114175 0.00466364 0.000184728
internal_weight=2850 2280 1800 514 109 405
internal_count=2850 2280 1800 514 109 405
cat_boundaries=0 1
cat_threshold=8
is_linear=0
shrinkage=0.03


Tree=72
num_leaves=7
num_cat=1
split_feature=25 3 26 26 4 3
split_gain=2.62992 1.01466 2.64641 1.27866 2.236 1.95646
threshold=0 16941.665000000005 3.5000000000000004 3.5000000000000004 -1.0000000180025095e-35 4702.7100000000009
decision_type=1 2 2 2 10 2
left_child=-1 3 -3 4 -2 -6
right_child=1 2 -4 -5 5 -7
leaf_value=-128.3482240534974 -100.53562518679323 -322.09772954180175 249.86460565252492 -38.362775841337644 -7.5640364788305448 92.610098850003141
leaf_weight=570 154 101 158 1162 357 348
leaf_count=570 154 101 158 1162 357 348
internal_value=-0.000831288 -0.000366653 0.00139615 -0.000594956 0.000282557 0.000998583
internal_weight=2850 2280 259 2021 859 705
internal_count=2850 2280 259 2021 859 705
cat_boundaries=0 1
cat_threshold=8
is_linear=0
shrinkage=0.03


Tree=73
num_leaves=7
num_cat=1
split_feature=25 3 26 26 4 14
split_gain=2.53776 1.06051 2.24959 0.927763 2.00366 1.70907
threshold=0 16941.665000000005 3.5000000000000004 3.5000000000000004 -1.0000000180025095e-35 1.5000000000000002
decision_type=1 2 2 2 10 2
left_child=-1 3 -3 4 -2 -5
right_child=1 2 -4 5 -6 -7
leaf_value=-124.49777733189248 -97.519556431189457 -312.4347976555477 242.36866748294915 -52.342630461111746 19.156229252107657 36.967000183327414
leaf_weight=570 154 101 158 1012 705 150
leaf_count=570 154 101 158 1012 705 150
internal_value=-0.000862856 -0.000405937 0.00139615 -0.000639467 0.000108139 -0.00119175
internal_weight=2850 2280 259 2021 859 1162
internal_count=2850 2280 259 2021 859 1162
cat_boundaries=0 1
cat_threshold=8
is_linear=0
shrinkage=0.03


Tree=74
num_leaves=7
num_cat=2
split_feature=25 15 6 8 25 10
split_gain=2.59903 1.0417 1.07175 1.28195 1.37268 1.41723
threshold=0 10.500000000000002 7760.6233333333339 9063.7472124950673 1 58.833333333333336
decision_type=1 2 2 2 1 2
left_child=-1 2 3 4 5 -2
right_child=1 -3 -4 -5 -6 -7
leaf_value=-120.76284401193568 -2.3751504756769721 -55.780564824416942 38.517368149793114 60.994357344994356 -28.66099320486186 149.61450000396596
leaf_weight=570 239 480 612 57 816 76
leaf_count=570 239 480 612 57 816 76
internal_value=-0.000841811 -0.000379748 -4.9973e-05 -0.000575274 -0.000797704 0.000874232
internal_weight=2850 2280 1800 1188 1131 315
internal_count=2850 2280 1800 1188 1131 315
cat_boundaries=0 1 2
cat_threshold=8 4
is_linear=0
shrinkage=0.03


Tree=75
num_leaves=7
num_cat=1
split_feature=25 3 26 26 23 15
split_gain=2.56831 1.04511 2.24959 0.944046 1.66109 1.61168
threshold=0 16941.665000000005 3.5000000000000004 4.5000000000000009 0.78041225042279094 5.5000000000000009
decision_type=1 2 2 2 2 2
left_child=-1 3 -3 5 -5 -2
right_child=1 2 -4 4 -6 -7
leaf_value=-117.13995869157763 -114.18035944002493 -304.855341544336 233.94208641396688 -74.558266425751157 23.445587565723841 7.3536506848904155
leaf_weight=570 151 101 158 708 106 1056
leaf_count=570 151 101 158 708 106 1056
internal_value=-0.000852333 -0.000392842 0.00139615 -0.00062463 -0.0014135 -9.18881e-05
internal_weight=2850 2280 259 2021 814 1207
internal_count=2850 2280 259 2021 814 1207
cat_boundaries=0 1
cat_threshold=8
is_linear=0
shrinkage=0.03


Tree=76
num_leaves=7
num_cat=1
split_feature=25 15 0 26 16 23
split_gain=2.66098 1.08636 1.18596 1.58233 2.09187 2.04652
threshold=0 10.500000000000002 9277.5000000000018 2.5000000000000004 -0.45688243072123663 0.00010388285272917109
decision_type=1 2 2 2 2 2
left_child=-1 2 -2 4 -4 -5
right_child=1 -3 3 5 -6 -7
leaf_value=-113.6257599308303 -17.306911734419838 -54.327757400231128 253.35130674826664 -22.159487152458453 -4.4482604170043816 81.316817567732627
leaf_weight=570 1286 480 58 252 51 153
leaf_count=570 1286 480 58 252 51 153
internal_value=-0.000820765 -0.000353558 -1.66581e-05 0.0012 0.00439091 0.000332512
internal_weight=2850 2280 1800 514 109 405
internal_count=2850 2280 1800 514 109 405
cat_boundaries=0 1
cat_threshold=8
is_linear=0
shrinkage=0.03


Tree=77
num_leaves=7
num_cat=1
split_feature=25 3 2 6 15 21
split_gain=2.62992 1.07909 1.31226 1.20994 0.932713 0.860847
threshold=0 8387.5000000000018 15412.085000000001 12380.974166666669 3.5000000000000004 0.068763412759615547
decision_type=1 2 2 2 2 2
left_child=-1 2 5 -4 -3 -2
right_child=1 4 3 -5 -6 -7
leaf_value=-110.21698713290539 -33.587458793674571 -144.10296718538311 106.54504072600815 0.66234729720047769 19.28066144565819 80.026978638424609
leaf_weight=570 1223 66 37 79 821 54
leaf_count=570 1223 66 37 79 821 54
internal_value=-0.000831288 -0.000366653 -0.00088881 0.00215385 0.000449324 -0.00116667
internal_weight=2850 2280 1393 116 887 1277
internal_count=2850 2280 1393 116 887 1277
cat_boundaries=0 1
cat_threshold=8
is_linear=0
shrinkage=0.03


Tree=78
num_leaves=7
num_cat=1
split_feature=25 3 26 21 26 15
split_gain=2.59903 1.02983 2.24959 0.91677 0.892187 1.61168
threshold=0 16941.665000000005 3.5000000000000004 0.035936563704893183 4.5000000000000009 5.5000000000000009
decision_type=1 2 2 2 2 2
left_child=-1 4 -3 -4 5 -2
right_child=1 2 3 -5 -6 -7
leaf_value=-106.91047751891824 -110.81417172933945 -295.76889378934305 24.412268739414927 333.29991917234599 -41.473867174250707 7.031652108404522
leaf_weight=570 151 101 63 95 814 1056
leaf_count=570 151 101 63 95 814 1056
internal_value=-0.000841811 -0.000379748 0.00139615 0.00362264 -0.000609793 -9.18881e-05
internal_weight=2850 2280 259 158 2021 1207
internal_count=2850 2280 259 158 2021 1207
cat_boundaries=0 1
cat_threshold=8
is_linear=0
shrinkage=0.03


Tree=79
num_leaves=7
num_cat=1
split_feature=25 3 2 6 15 10
split_gain=2.69221 1.01079 1.27547 1.20994 0.912587 1.32925
threshold=0 8387.5000000000018 15412.085000000001 12380.974166666669 9.5000000000000018 58.833333333333336
decision_type=1 2 2 2 2 2
left_child=-1 2 4 -4 5 -2
right_child=1 -3 3 -5 -6 -7
leaf_value=-103.7031631933507 -20.914836815144557 9.9364721080604266 103.71980492338903 1.8866928935120915 -55.500184022460623 43.700068930934655
leaf_weight=570 557 887 37 79 624 96
leaf_count=570 557 887 37 79 624 96
internal_value=-0.000810243 -0.000340463 -0.000845768 0.00215385 -0.00111972 -0.000334863
internal_weight=2850 2280 1393 116 1277 653
internal_count=2850 2280 1393 116 1277 653
cat_boundaries=0 1
cat_threshold=8
is_linear=0
shrinkage=0.03


Tree=80
num_leaves=7
num_cat=2
split_feature=25 15 6 8 25 10
split_gain=2.78694 0.984893 1.36506 1.18258 1.11172 1.35323
threshold=0 11.500000000000002 7760.6233333333339 8933.3515416687751 1 58.833333333333336
decision_type=1 2 2 2 1 2
left_child=-1 2 3 4 5 -2
right_child=1 -3 -4 -5 -6 -7
leaf_value=-100.59206829755018 -4.2225526691378477 -78.082595639609863 25.552583536705029 38.627999984727765 -30.441012210862517 118.83683074569026
leaf_weight=570 263 240 738 75 882 82
leaf_count=570 263 240 738 75 882 82
internal_value=-0.000778675 -0.000301179 -8.81928e-05 -0.000672295 -0.000896581 0.000547752
internal_weight=2850 2280 2040 1302 1227 345
internal_count=2850 2280 2040 1302 1227 345
cat_boundaries=0 1 2
cat_threshold=8 4
is_linear=0
shrinkage=0.03


Tree=81
num_leaves=7
num_cat=0
split_feature=6 4 26 26 8 3
split_gain=2.24855 1.01496 1.32249 5.37281 1.18769 1.05694
threshold=1287.1291666666668 1920.0000000000002 2.5000000000000004 3.5000000000000004 4285.1794325450046 16941.665000000005
decision_type=2 8 2 2 2 2
left_child=-1 2 -2 -4 -5 -3
right_child=1 5 3 4 -6 -7
leaf_value=-66.163126275848555 -14.17089522003759 -18.185457897739589 381.17100556334219 -57.377484553352211 104.08290145576831 111.9985497851833
leaf_weight=806 66 1593 33 54 45 253
leaf_count=806 66 1593 33 54 45 253
internal_value=-0.000726062 -0.000196578 0.0018392 0.00356391 2.99993e-05 -0.00041581
internal_weight=2850 2044 198 132 99 1846
internal_count=2850 2044 198 132 99 1846
is_linear=0
shrinkage=0.03


Tree=82
num_leaves=7
num_cat=2
split_feature=25 6 15 25 5 10
split_gain=2.20296 1.13157 0.966145 1.01481 1.48258 1.5326
threshold=0 -8477.8874999999989 10.500000000000002 1 11032.983333333335 53.500000000000007
decision_type=1 2 2 1 2 2
left_child=1 -1 3 -2 -5 -6
right_child=2 -3 -4 4 5 -7
leaf_value=4.6105875396517693 28.678886513793167 -95.797592764848275 -48.803130384457411 -19.261138111292965 116.56530778726237 8.5060391323273326
leaf_weight=48 900 522 480 760 33 107
leaf_count=48 900 522 480 760 33 107
internal_value=-0.000726062 -0.00237522 -0.000301179 1.66567e-05 -0.000691548 0.00212766
internal_weight=2850 570 2280 1800 900 140
internal_count=2850 570 2280 1800 900 140
cat_boundaries=0 1 2
cat_threshold=8 20
is_linear=0
shrinkage=0.03


Tree=83
num_leaves=7
num_cat=2
split_feature=25 6 15 25 8 22
split_gain=2.11875 1.13157 0.903365 1.06254 1.38651 1.34173
threshold=0 -8477.8874999999989 10.500000000000002 1 9669.3484147743602 1.7038480474405906
decision_type=1 2 2 1 2 2
left_child=1 -1 3 5 -5 -2
right_child=2 -3 -4 4 -6 -7
leaf_value=4.472269913462223 -24.573815574821847 -92.923664981902817 -47.339036472923667 -13.56979531786404 54.885385697232124 93.265991388487549
leaf_weight=48 408 522 480 862 38 492
leaf_count=48 408 522 480 862 38 492
internal_value=-0.00075763 -0.00237522 -0.000340463 -3.33155e-05 -0.00075741 0.000691547
internal_weight=2850 570 2280 1800 900 900
internal_count=2850 570 2280 1800 900 900
cat_boundaries=0 1 2
cat_threshold=8 20
is_linear=0
shrinkage=0.03


Tree=84
num_leaves=7
num_cat=0
split_feature=6 15 8 9 15 3
split_gain=2.23207 1.00285 1.1013 1.14693 1.07558 1.32441
threshold=1287.1291666666668 10.500000000000002 3098.0116655362858 0.91259072802894992 3.5000000000000004 2331.2500000000005
decision_type=2 2 2 2 2 2
left_child=-1 2 -2 -4 -5 -6
right_child=1 -3 3 4 5 -7
leaf_value=-62.859014610658313 -32.630909187548703 -44.79294571964293 -39.740698476516386 -60.220005062582288 134.59440240381966 25.703035991341213
leaf_weight=806 349 468 145 194 93 795
leaf_count=806 349 468 145 194 93 795
internal_value=-0.000768152 -0.000240588 0.000121749 0.000544788 0.000880886 0.00132283
internal_weight=2850 2044 1576 1227 1082 888
internal_count=2850 2044 1576 1227 1082 888
is_linear=0
shrinkage=0.03


Tree=85
num_leaves=7
num_cat=0
split_feature=6 17 10 8 22 0
split_gain=1.86592 1.36389 1.89404 1.23806 1.2018 1.07303
threshold=7557.291666666667 -0.088175693254417806 58.833333333333336 6925.3987835343978 1.4173479053210958 4914.0300000000007
decision_type=2 2 2 2 2 2
left_child=1 2 5 -3 -5 -1
right_child=-2 3 -4 4 -6 -7
leaf_value=-27.536705558579786 11.568561719025196 -75.350202531813437 96.686295329651841 22.528692320196608 -41.501074136591114 93.784424281548411
leaf_weight=241 985 1139 63 127 218 77
leaf_count=241 985 1139 63 127 218 77
internal_value=-0.000736584 -0.00129421 0.000306282 -0.00170505 -0.000130059 -0.000639499
internal_weight=2850 1865 381 1484 345 318
internal_count=2850 1865 381 1484 345 318
is_linear=0
shrinkage=0.03


Tree=86
num_leaves=7
num_cat=1
split_feature=25 15 11 3 19 26
split_gain=1.91485 1.10191 1.21116 1.57976 1.18751 2.80521
threshold=0 9.5000000000000018 5.4224800071569819 2039.1650000000002 1.1377097747096816 3.5000000000000004
decision_type=1 2 2 2 2 2
left_child=-1 2 4 -4 -2 -6
right_child=1 -3 3 -5 5 -7
leaf_value=-85.856498213671543 -24.233524692023934 -29.901067500592301 247.97394013706906 8.6341776783025228 -301.19853417353778 249.41679927719989
leaf_weight=570 888 720 51 528 42 51
leaf_count=570 888 720 51 528 42 51
internal_value=-0.000631358 -0.000235706 0.000211402 0.00129828 -0.000430754 0.0027766
internal_weight=2850 2280 1560 579 981 93
internal_count=2850 2280 1560 579 981 93
cat_boundaries=0 1
cat_threshold=8
is_linear=0
shrinkage=0.03


Tree=87
num_leaves=7
num_cat=2
split_feature=25 6 15 3 2 25
split_gain=1.83649 1.02605 1.0141 1.12335 1.29766 1.1145
threshold=0 -8477.8874999999989 9.5000000000000018 8785.5550000000021 15412.085000000001 1
decision_type=1 2 2 2 2 1
left_child=1 -1 5 4 -4 -2
right_child=2 -3 3 -5 -6 -7
leaf_value=10.349240442536171 39.315571251087071 -84.260398356234944 -51.563564101513975 47.150880050600506 65.96739206942452 -12.903188966212225
leaf_weight=48 780 522 624 48 48 780
leaf_count=48 780 522 624 48 48 780
internal_value=-0.000662926 -0.00216868 -0.00027499 -0.00120666 -0.00152452 0.000153747
internal_weight=2850 570 2280 720 672 1560
internal_count=2850 570 2280 720 672 1560
cat_boundaries=0 1 2
cat_threshold=8 20
is_linear=0
shrinkage=0.03


Tree=88
num_leaves=7
num_cat=1
split_feature=25 6 15 8 26 11
split_gain=1.78511 1.02605 0.966145 0.94367 1.03444 0.945702
threshold=0 -8477.8874999999989 10.500000000000002 3089.5378938932708 3.5000000000000004 3.5384386968112591
decision_type=1 2 2 2 2 2
left_child=1 -1 3 4 -2 -5
right_child=2 -3 -4 5 -6 -7
leaf_value=10.038763229260089 1.5203051306509954 -81.732586405547906 -41.962317961125208 -10.32052543408992 -96.402465260862371 24.465921189825995
leaf_weight=48 199 522 480 648 258 695
leaf_count=48 199 522 480 648 258 695
internal_value=-0.000683971 -0.00216868 -0.000301179 1.66567e-05 -0.00115939 0.00041741
internal_weight=2850 570 2280 1800 457 1343
internal_count=2850 570 2280 1800 457 1343
cat_boundaries=0 1
cat_threshold=8
is_linear=0
shrinkage=0.03


Tree=89
num_leaves=7
num_cat=1
split_feature=25 6 15 4 26 8
split_gain=1.81072 1.02605 0.987539 0.896266 0.991194 0.866895
threshold=0 -8477.8874999999989 10.500000000000002 19811.530000000002 3.5000000000000004 3089.5378938932708
decision_type=1 2 2 10 2 2
left_child=1 -1 5 -4 -5 -2
right_child=2 -3 3 4 -6 -7
leaf_value=9.7376003323822768 -30.010256278530981 -79.280608813381448 -59.958575139581427 32.991170488207523 -146.05432525843079 6.0347542118569004
leaf_weight=48 457 522 360 60 60 1343
leaf_count=48 457 522 360 60 60 1343
internal_value=-0.000673449 -0.00216868 -0.000288085 -0.00149688 0.000743801 3.33141e-05
internal_weight=2850 570 2280 480 120 1800
internal_count=2850 570 2280 480 120 1800
cat_boundaries=0 1
cat_threshold=8
is_linear=0
shrinkage=0.03


Tree=90
num_leaves=7
num_cat=2
split_feature=25 6 17 6 6 25
split_gain=1.81072 1.02605 0.886012 1.28692 1.50865 1.43233
threshold=0 -8477.8874999999989 0.031669385090665976 9850.5550000000021 10437.361666666668 1
decision_type=1 2 2 2 2 1
left_child=1 -1 3 5 -5 -2
right_child=2 -3 -4 4 -6 -7
leaf_value=9.4454723224108026 25.725180296861502 -76.902190548980016 -33.88247240249202 132.32694462040004 25.735030264618647 -22.24080921950484
leaf_weight=48 302 522 620 38 415 905
leaf_count=48 302 522 620 38 415 905
internal_value=-0.000673449 -0.00216868 -0.000288085 7.22449e-05 0.00143392 -0.00043957
internal_weight=2850 570 2280 1660 453 1207
internal_count=2850 570 2280 1660 453 1207
cat_boundaries=0 1 2
cat_threshold=8 4
is_linear=0
shrinkage=0.03


Tree=91
num_leaves=7
num_cat=1
split_feature=25 6 15 1 12 26
split_gain=1.96795 1.02605 0.950009 1.16104 1.32167 1.21198
threshold=0 -8477.8874999999989 11.500000000000002 8963.1250000000018 4.1164702132877116 1.5000000000000002
decision_type=1 2 2 2 2 2
left_child=1 -1 3 -2 -5 -6
right_child=2 -3 -4 4 5 -7
leaf_value=9.1621081527384796 -20.041576764731857 -74.595124832510621 -70.957433362209073 70.143717558029167 74.833478436907285 1.9224411940053865
leaf_weight=48 1378 522 240 33 62 567
leaf_count=48 1378 522 240 33 62 567
internal_value=-0.000610313 -0.00216868 -0.000209516 -7.14905e-10 0.00103167 0.000719047
internal_weight=2850 570 2280 2040 662 629
internal_count=2850 570 2280 2040 662 629
cat_boundaries=0 1
cat_threshold=8
is_linear=0
shrinkage=0.03


Tree=92
num_leaves=7
num_cat=0
split_feature=3 2 4 17 16 17
split_gain=1.43584 1.48921 1.10277 1.05124 1.02351 0.887141
threshold=6227.3650000000007 14878.750000000002 6962.5000000000009 0.067241842287889778 0.13301956720350824 -0.080292847548475363
decision_type=2 2 8 2 2 2
left_child=1 5 -2 -4 -3 -1
right_child=2 4 3 -5 -6 -7
leaf_value=1.8315546043947104 31.546961075845331 -0.0521056760379566 3.7093047314185572 -60.951949390812928 74.422861673228113 -58.610874240749254
leaf_weight=235 252 69 813 162 39 1280
leaf_count=235 252 69 813 162 39 1280
internal_value=-0.000547177 -0.00113239 0.000227198 -0.000230534 0.00225688 -0.00137533
internal_weight=2850 1623 1227 975 108 1515
internal_count=2850 1623 1227 975 108 1515
is_linear=0
shrinkage=0.03


Tree=93
num_leaves=7
num_cat=1
split_feature=6 25 12 10 7 15
split_gain=1.54915 1.54815 1.02444 1.13613 1.00366 0.952155
threshold=4421.9433333333345 0 11.394015340883128 56.833333333333336 8562.3577869271139 11.500000000000002
decision_type=2 1 2 2 2 2
left_child=1 2 3 -1 -3 -2
right_child=5 4 -4 -5 -6 -7
leaf_value=-0.040929371573044972 3.9582215207167173 -61.485698674504924 -64.425041515629957 111.35296041603787 83.72245159705102 -62.352416571585877
leaf_weight=107 1378 967 60 71 51 216
leaf_count=107 1378 967 60 71 51 216
internal_value=-0.000515609 -0.0013031 0.000867469 0.00204469 -0.00180175 0.000105328
internal_weight=2850 1256 238 178 1018 1594
internal_count=2850 1256 238 178 1018 1594
cat_boundaries=0 1
cat_threshold=6
is_linear=0
shrinkage=0.03


Tree=94
num_leaves=7
num_cat=1
split_feature=6 25 4 3 26 26
split_gain=1.65606 1.29937 0.994189 0.930008 2.77974 0.933003
threshold=4202.7066666666678 0 5462.9150000000009 23093.335000000003 4.5000000000000009 1.5000000000000002
decision_type=2 1 8 2 2 2
left_child=1 -1 -2 5 -5 -4
right_child=2 -3 3 4 -6 -7
leaf_value=9.5649883224185057 45.385601843453721 -55.321068563390526 39.826421286929268 -296.59576339768614 326.30666319455383 -23.805286724975186
leaf_weight=214 240 1004 142 57 46 1147
leaf_count=214 240 1004 142 57 46 1147
internal_value=-0.000536655 -0.00137326 8.81805e-05 -0.00021967 0.00250961 -0.000439536
internal_weight=2850 1218 1632 1392 103 1289
internal_count=2850 1218 1632 1392 103 1289
cat_boundaries=0 1
cat_threshold=6
is_linear=0
shrinkage=0.03


Tree=95
num_leaves=7
num_cat=1
split_feature=6 8 25 7 3 22
split_gain=1.63841 1.3507 1.45983 1.18294 1.41316 1.13168
threshold=7557.291666666667 6925.3987835343978 0 5650.4276880609814 3305.8350000000005 1.8494736928395075
decision_type=2 2 1 2 2 2
left_child=1 2 -1 4 -2 -3
right_child=3 5 -4 -5 -6 -7
leaf_value=-6.6238289245650774 69.792609714788512 16.388606072356826 -73.642157929247588 -34.732773706944144 15.024006579686327 -45.162218440863143
leaf_weight=715 111 290 712 365 509 148
leaf_count=715 111 290 712 365 509 148
internal_value=-0.000578745 -0.00110129 -0.00154832 0.00041075 0.00120773 0.000355352
internal_weight=2850 1865 1427 985 620 438
internal_count=2850 1865 1427 985 620 438
cat_boundaries=0 1
cat_threshold=22
is_linear=0
shrinkage=0.03


Tree=96
num_leaves=7
num_cat=1
split_feature=6 8 25 22 17 12
split_gain=1.47588 1.32106 1.53709 1.13168 1.05257 0.871497
threshold=7557.291666666667 6925.3987835343978 0 1.8494736928395075 0.14086085533994067 4.4737021294692889
decision_type=2 2 1 2 2 2
left_child=1 2 -1 -3 5 -2
right_child=4 3 -4 -5 -6 -7
leaf_value=-1.1075254795060563 67.698840657612436 15.896947890186137 -75.08626588245572 -43.807351887637267 -175.74110923909876 12.52712368674176
leaf_weight=495 31 290 932 148 94 860
leaf_count=495 31 290 932 148 94 860
internal_value=-0.000589268 -0.00108521 -0.00152731 0.000355352 0.000349898 0.000669282
internal_weight=2850 1865 1427 438 985 891
internal_count=2850 1865 1427 438 985 891
cat_boundaries=0 1
cat_threshold=6
is_linear=0
shrinkage=0.03


Tree=97
num_leaves=7
num_cat=1
split_feature=6 8 25 22 7 3
split_gain=1.31852 1.23412 1.39913 1.13168 0.899559 0.904306
threshold=7557.291666666667 6925.3987835343978 0 1.8494736928395075 5650.4276880609814 3305.8350000000005
decision_type=2 2 1 2 2 2
left_child=1 2 -1 -3 5 -2
right_child=4 3 -4 -5 -6 -7
leaf_value=-1.07429971512085 65.667870544424005 15.420039453480577 -72.833677905982057 -42.493131331008151 -35.059680747686883 12.873331417753942
leaf_weight=495 111 290 932 148 365 509
leaf_count=495 111 290 932 148 365 509
internal_value=-0.000568222 -0.00103698 -0.00146429 0.000355352 0.000319472 0.00101449
internal_weight=2850 1865 1427 438 985 620
internal_count=2850 1865 1427 438 985 620
cat_boundaries=0 1
cat_threshold=6
is_linear=0
shrinkage=0.03


Tree=98
num_leaves=7
num_cat=1
split_feature=6 25 15 16 26 4
split_gain=1.24997 1.06728 0.866109 0.878366 2.64424 1.24385
threshold=3919.1675 0 11.500000000000002 -0.53820233689868435 3.5000000000000004 32823.750000000007
decision_type=2 1 2 2 2 8
left_child=1 -1 3 4 5 -2
right_child=2 -3 -4 -5 -6 -7
leaf_value=6.8195866033103183 234.63498293357216 -46.70148194485936 -63.726410629854847 -3.2575362427185071 -23.777196719975642 -30.064921442215727
leaf_weight=202 138 988 222 1088 180 32
leaf_count=202 138 988 222 1088 180 32
internal_value=-0.000568222 -0.00130982 -3.61235e-05 0.000233495 0.00153846 0.00421053
internal_weight=2850 1190 1660 1438 350 170
internal_count=2850 1190 1660 1438 350 170
cat_boundaries=0 1
cat_threshold=6
is_linear=0
shrinkage=0.03


Tree=99
num_leaves=7
num_cat=1
split_feature=8 25 26 15 9 6
split_gain=1.26285 1.81113 1.10321 1.07557 1.19777 1.04829
threshold=6925.3987835343978 0 5.5000000000000009 4.5000000000000009 2.2310441129630765 10151.110833333334
decision_type=2 1 2 2 2 2
left_child=1 2 3 -1 -5 -3
right_child=-2 5 -4 4 -6 -7
leaf_value=-262.66205114886583 3.8803829556220069 -60.545222698557012 -104.10246808341374 21.924352590301236 -42.434544140447819 21.628962984403199
leaf_weight=85 876 743 230 706 155 55
leaf_count=85 876 743 230 706 155 55
internal_value=-0.0005577 -0.000978229 -0.000217355 0.000234424 0.000553364 -0.00206922
internal_weight=2850 1974 1176 946 861 798
internal_count=2850 1974 1176 946 861 798
cat_boundaries=0 1
cat_threshold=22
is_linear=0
shrinkage=0.03


Tree=100
num_leaves=7
num_cat=1
split_feature=8 25 26 15 9 6
split_gain=1.26285 1.68975 1.07318 1.05442 1.16307 1.02865
threshold=6925.3987835343978 0 5.5000000000000009 4.5000000000000009 2.2310441129630765 10151.110833333334
decision_type=2 1 2 2 2 2
left_child=1 2 3 -1 -5 -3
right_child=-2 5 -4 4 -6 -7
leaf_value=-254.78218961439987 3.7639714669533242 -58.728866017600303 -100.97939404091137 21.266622012592173 -41.161507816234327 20.980094094871102
leaf_weight=85 876 743 230 706 155 55
leaf_count=85 876 743 230 706 155 55
internal_value=-0.0005577 -0.000978229 -0.000242629 0.000202745 0.000518561 -0.00203214
internal_weight=2850 1974 1176 946 861 798
internal_count=2850 1974 1176 946 861 798
cat_boundaries=0 1
cat_threshold=22
is_linear=0
shrinkage=0.03


Tree=101
num_leaves=7
num_cat=1
split_feature=8 25 19 26 4 26
split_gain=1.29104 1.76074 0.982853 1.15075 1.07748 1.06234
threshold=6925.3987835343978 0 1.8192697081251057 1.5000000000000002 8482.5000000000018 3.5000000000000004
decision_type=2 1 2 2 10 2
left_child=1 -1 4 -4 -2 -6
right_child=2 -3 3 -5 5 -7
leaf_value=-2.5353536137415911 9.3648230927600817 -45.176274612038277 24.32146435320978 -152.24016046642356 73.315783518002036 3.8283750713559623
leaf_weight=1176 558 798 31 155 66 66
leaf_count=1176 558 798 31 155 66 66
internal_value=-0.000568222 -0.000993418 0.000389965 -0.00154011 0.000911721 0.00333835
internal_weight=2850 1974 876 186 690 132
internal_count=2850 1974 876 186 690 132
cat_boundaries=0 1
cat_threshold=22
is_linear=0
shrinkage=0.03


Tree=102
num_leaves=7
num_cat=0
split_feature=6 8 17 17 26 0
split_gain=1.17814 1.15943 1.01914 0.944854 1.13229 1.85339
threshold=7760.6233333333339 9669.3484147743602 0.14086085533994067 -0.080292847548475363 3.5000000000000004 4914.0300000000007
decision_type=2 2 2 2 2 2
left_child=1 3 -2 4 5 -1
right_child=2 -3 -4 -5 -6 -7
leaf_value=-2.491931185497628 17.216659569563824 42.929374587984789 -166.41650552136454 -40.375921439139226 -25.342552358768899 286.67310110161958
leaf_weight=145 818 51 94 1462 222 58
leaf_count=145 818 51 94 1462 222 58
internal_value=-0.00059979 -0.00101805 0.000289156 -0.0011393 0.000105633 0.00172059
internal_weight=2850 1938 912 1887 425 203
internal_count=2850 1938 912 1887 425 203
is_linear=0
shrinkage=0.03


Tree=103
num_leaves=7
num_cat=1
split_feature=12 15 1 25 26 15
split_gain=1.17259 0.989196 1.15063 1.16135 1.51525 2.5062
threshold=0.62490433476478946 10.500000000000002 8320.345000000003 0 4.5000000000000009 5.5000000000000009
decision_type=2 2 2 1 2 2
left_child=-1 2 3 -2 5 -5
right_child=1 -3 -4 4 -6 -7
leaf_value=-66.280753923962266 -20.321293490007097 -44.053106668216309 26.129821160854966 -291.52247919688733 -78.54025886526361 72.532758816083273
leaf_weight=471 550 492 605 90 302 340
leaf_count=471 550 492 605 90 302 340
internal_value=-0.000547177 -0.000276051 3.65459e-05 -0.000472331 0.000314939 0.00146172
internal_weight=2850 2379 1887 1282 732 430
internal_count=2850 2379 1887 1282 732 430
cat_boundaries=0 1
cat_threshold=3
is_linear=0
shrinkage=0.03


Tree=104
num_leaves=7
num_cat=1
split_feature=8 25 19 26 26 15
split_gain=1.20046 1.68975 0.948376 1.15075 0.926517 1.03347
threshold=6925.3987835343978 0 1.8192697081251057 1.5000000000000002 5.5000000000000009 4.5000000000000009
decision_type=2 1 2 2 2 2
left_child=1 4 -2 -4 5 -1
right_child=2 -3 3 -5 -6 -7
leaf_value=-242.03513719425575 14.49208697145591 -44.493219828080193 24.396913835573109 -147.33068827756315 -97.266281587518833 8.6378107565183022
leaf_weight=85 690 798 31 155 230 861
leaf_count=85 690 798 31 155 230 861
internal_value=-0.000568222 -0.000978229 0.000355758 -0.00154011 -0.000242629 0.000171066
internal_weight=2850 1974 876 186 1176 946
internal_count=2850 1974 876 186 1176 946
cat_boundaries=0 1
cat_threshold=22
is_linear=0
shrinkage=0.03


Tree=105
num_leaves=7
num_cat=1
split_feature=6 8 7 25 4 26
split_gain=1.24173 1.21593 1.11998 0.908941 1.99199 1.24502
threshold=7760.6233333333339 8933.3515416687751 5650.4276880609814 0 8840.0000000000018 4.5000000000000009
decision_type=2 2 2 1 10 2
left_child=1 3 -2 5 -5 -1
right_child=2 -3 -4 4 -6 -7
leaf_value=8.2549054189773479 31.370649916326155 35.79378267646505 -35.660831547446342 -44.467747636955337 11.635531948905745 -79.236519572279434
leaf_weight=552 558 96 354 900 60 330
leaf_count=552 558 96 354 900 60 330
internal_value=-0.0005577 -0.000987107 0.000354873 -0.00115898 -0.00179197 -0.00044345
internal_weight=2850 1938 912 1842 960 882
internal_count=2850 1938 912 1842 960 882
cat_boundaries=0 1
cat_threshold=22
is_linear=0
shrinkage=0.03


Tree=106
num_leaves=7
num_cat=1
split_feature=6 8 25 4 26 17
split_gain=1.36263 0.950804 0.921795 1.53343 1.24502 1.75959
threshold=7760.6233333333339 9063.7472124950673 0 9881.6650000000027 4.5000000000000009 -0.088175693254417806
decision_type=2 2 1 10 2 2
left_child=1 2 4 -4 5 -1
right_child=-2 -3 3 -5 -6 -7
leaf_value=138.83207371332341 6.7394304766103703 37.273143612142114 -40.914359779863098 12.658927748416154 -76.859423985111107 -4.7884278088296801
leaf_weight=136 912 90 912 54 330 416
leaf_count=136 912 90 912 54 330 416
internal_value=-0.000568222 -0.00101805 -0.00116495 -0.00179939 -0.00044345 0.000423146
internal_weight=2850 1938 1848 966 882 552
internal_count=2850 1938 1848 966 882 552
cat_boundaries=0 1
cat_threshold=22
is_linear=0
shrinkage=0.03


Tree=107
num_leaves=7
num_cat=1
split_feature=6 8 25 22 26 17
split_gain=1.27053 0.993025 1.12973 0.920948 0.897869 1.44995
threshold=7760.6233333333339 6925.3987835343978 0 1.8048573662689484 4.5000000000000009 -0.088175693254417806
decision_type=2 2 1 2 2 2
left_child=1 2 4 -3 5 -1
right_child=-2 3 -4 -5 -6 -7
leaf_value=136.72819437568853 6.5372475623120883 16.517037665758636 -53.013802300339442 -40.939248246809498 -73.210481216008702 -5.9554934783422766
leaf_weight=124 912 290 721 154 292 357
leaf_count=124 912 290 721 154 292 357
internal_value=-0.000568222 -0.00100258 -0.00137258 0.000242696 -0.000547195 0.000242738
internal_weight=2850 1938 1494 444 773 481
internal_count=2850 1938 1494 444 773 481
cat_boundaries=0 1
cat_threshold=22
is_linear=0
shrinkage=0.03


Tree=108
num_leaves=7
num_cat=1
split_feature=6 8 25 22 8 8
split_gain=1.27053 1.10363 1.22897 0.915709 0.950571 0.953833
threshold=7760.6233333333339 6925.3987835343978 0 1.7038480474405906 5713.0127696776499 3202.7616221654348
decision_type=2 2 1 2 2 2
left_child=1 2 3 -1 5 -5
right_child=-2 -3 -4 4 -6 -7
leaf_value=-53.130388557287226 6.3411301354427376 3.5210762341161912 -44.447354197230034 3.403952521455158 -107.14695438910582 193.49043285885844
leaf_weight=142 912 444 1174 78 32 68
leaf_count=142 912 444 1174 78 32 68
internal_value=-0.000568222 -0.00100258 -0.00139264 0.000271903 0.0017095 0.00273469
internal_weight=2850 1938 1494 320 178 146
internal_count=2850 1938 1494 320 178 146
cat_boundaries=0 1
cat_threshold=4
is_linear=0
shrinkage=0.03


Tree=109
num_leaves=7
num_cat=0
split_feature=3 2 23 17 11 26
split_gain=1.2335 1.32107 1.3045 1.12108 0.897511 1.47175
threshold=4702.7100000000009 10933.125000000002 0.011014953703498254 0.061856571086672425 8.040905640704592 2.5000000000000004
decision_type=2 2 2 2 2 2
left_child=1 -1 -3 4 -2 -6
right_child=3 2 -4 -5 5 -7
leaf_value=-44.0881716620801 -4.4753977452529767 -0.43981137634629225 112.54263063366905 -35.315634438765599 121.1541530887794 3.3421555997437529
leaf_weight=1168 862 158 40 233 111 278
leaf_count=1168 862 158 40 233 111 278
internal_value=-0.000526132 -0.0011763 0.00108543 7.27266e-05 0.000428913 0.00162308
internal_weight=2850 1366 198 1484 1251 389
internal_count=2850 1366 198 1484 1251 389
is_linear=0
shrinkage=0.03


Tree=110
num_leaves=7
num_cat=0
split_feature=12 17 8 15 26 4
split_gain=1.19073 1.05464 0.908968 1.3301 1.04116 0.937081
threshold=0.62490433476478946 0.074999699816574963 3089.5378938932708 10.500000000000002 3.5000000000000004 12474.305000000002
decision_type=2 2 2 2 2 8
left_child=-1 2 4 5 -2 -4
right_child=1 -3 3 -5 -6 -7
leaf_value=-56.149591644106984 1.2114328465338751 -31.529469595818611 32.078600609621446 -31.418500480744552 -88.089353265369937 6.0505316980692152
leaf_weight=471 199 362 336 360 260 862
leaf_count=471 199 362 336 360 260 862
internal_value=-0.000536655 -0.000263446 4.45915e-06 0.000350224 -0.00116739 0.000830692
internal_weight=2850 2379 2017 1558 459 1198
internal_count=2850 2379 2017 1558 459 1198
is_linear=0
shrinkage=0.03


Tree=111
num_leaves=7
num_cat=1
split_feature=12 19 15 8 25 26
split_gain=1.246 0.941791 0.927379 1.25853 1.20349 1.19043
threshold=0.62490433476478946 1.5455438591362087 3.5000000000000004 9751.9737834457901 0 5.5000000000000009
decision_type=2 2 2 2 1 2
left_child=-1 2 -2 4 5 -4
right_child=1 -3 3 -5 -6 -7
leaf_value=-54.465103894783766 -83.843568915423759 -95.939137226370264 51.706109705503906 151.84356406972094 -5.8732730336609951 -93.318499999853756
leaf_weight=471 280 300 599 95 975 130
leaf_count=471 280 300 599 95 975 130
internal_value=-0.000505087 -0.000225631 1.44159e-06 0.000251666 6.33424e-05 0.000977026
internal_weight=2850 2379 2079 1799 1704 729
internal_count=2850 2379 2079 1799 1704 729
cat_boundaries=0 1
cat_threshold=28
is_linear=0
shrinkage=0.03


Tree=112
num_leaves=7
num_cat=0
split_feature=12 17 6 6 6 10
split_gain=1.17259 0.923992 1.1387 0.925094 1.77143 0.92059
threshold=0.62490433476478946 0.074999699816574963 -2163.5299999999997 9850.5550000000021 10437.361666666668 58.833333333333336
decision_type=2 2 2 2 2 2
left_child=-1 2 -2 5 -5 -4
right_child=1 -3 3 4 -6 -7
leaf_value=-52.831150777940245 14.731773006439012 -30.407387316934223 -21.248160827748414 121.8629417400328 8.3402112540612894 33.64981595195993
leaf_weight=471 36 362 1203 38 522 218
leaf_count=471 36 362 1203 38 522 218
internal_value=-0.000547177 -0.000276051 -2.52733e-05 -0.000122604 0.00090909 -0.000529537
internal_weight=2850 2379 2017 1981 560 1421
internal_count=2850 2379 2017 1981 560 1421
is_linear=0
shrinkage=0.03


Tree=113
num_leaves=7
num_cat=0
split_feature=12 6 8 17 6 6
split_gain=1.04817 1.06893 1.16786 0.974826 1.11931 0.756292
threshold=0.62490433476478946 -7986.1641666666656 6179.1841049414661 0.074999699816574963 -2163.5299999999997 9850.5550000000021
decision_type=2 2 2 2 2 2
left_child=1 2 -1 4 -2 -6
right_child=3 -3 -4 -5 5 -7
leaf_value=-56.012235356006428 14.289819816245849 -51.437913031945797 132.37934449363198 -29.495165697426184 -11.788709816027222 23.446366077148333
leaf_weight=30 36 399 42 362 1421 560
leaf_count=30 36 399 42 362 1421 560
internal_value=-0.000494564 -0.00178602 0.00156164 -0.000238236 1.93254e-05 -7.71955e-05
internal_weight=2850 471 72 2379 2017 1981
internal_count=2850 471 72 2379 2017 1981
is_linear=0
shrinkage=0.03


Tree=114
num_leaves=7
num_cat=0
split_feature=12 17 6 6 23 26
split_gain=1.10074 0.940786 1.13222 0.87548 0.68271 3.4534
threshold=0.62490433476478946 0.074999699816574963 -2163.5299999999997 -8477.8874999999989 0.78041225042279094 4.5000000000000009
decision_type=2 2 2 2 2 2
left_child=3 2 -2 -1 -4 -6
right_child=1 -3 4 -5 5 -7
leaf_value=23.184782341144935 13.861125221758479 -28.610310726503396 -5.5946689345704987 -49.894775640987426 -58.862767479967196 97.695022062750439
leaf_weight=48 36 362 1520 423 267 194
leaf_count=48 36 362 1520 423 267 194
internal_value=-0.000526132 -0.000263446 -1.04071e-05 -0.00184958 -0.000107468 0.000902597
internal_weight=2850 2379 2017 471 1981 461
internal_count=2850 2379 2017 471 1981 461
is_linear=0
shrinkage=0.03


Tree=115
num_leaves=7
num_cat=1
split_feature=8 19 4 25 26 23
split_gain=1.02313 1.1531 1.03922 1.02154 0.903364 3.3456
threshold=6925.3987835343978 1.8192697081251057 8482.5000000000018 0 4.5000000000000009 0.88621741685480027
decision_type=2 2 10 1 2 2
left_child=3 2 -2 4 -1 -6
right_child=1 -3 -4 -5 5 -7
leaf_value=2.7560244518877797 8.8190158263444545 -100.79488433176512 29.078940123440656 -33.847932371757814 -80.853068714893567 90.327936403050856
leaf_weight=727 558 186 132 798 411 38
leaf_count=727 558 186 132 798 411 38
internal_value=-0.000462996 0.000389965 0.000955137 -0.00084152 -0.000267903 -0.00132667
internal_weight=2850 876 690 1974 1176 449
internal_count=2850 876 690 1974 1176 449
cat_boundaries=0 1
cat_threshold=22
is_linear=0
shrinkage=0.03


Tree=116
num_leaves=7
num_cat=0
split_feature=3 2 23 2 22 4
split_gain=0.948702 1.43296 1.25723 0.947038 0.941524 0.889884
threshold=4882.5000000000009 9085.0000000000018 0.26457583937361423 -11915.084999999997 1.4173479053210958 8908.3350000000009
decision_type=2 2 2 2 2 8
left_child=1 3 -3 4 -1 -2
right_child=5 2 -4 -5 -6 -7
leaf_value=39.226889597808189 17.560500611764319 -0.086064361513836465 100.22460111492111 -50.685645354214245 -24.422210101213544 -10.253250773545487
leaf_weight=30 396 249 46 1029 36 1064
leaf_count=30 396 249 46 1029 36 1064
internal_value=-0.000431428 -0.000992093 0.000861486 -0.00149179 0.00197015 0.000102669
internal_weight=2850 1390 295 1095 66 1460
internal_count=2850 1390 295 1095 66 1460
is_linear=0
shrinkage=0.03


Tree=117
num_leaves=7
num_cat=0
split_feature=15 26 2 4 0 15
split_gain=0.896587 1.12076 1.31035 1.35703 1.0369 1.23098
threshold=10.500000000000002 3.5000000000000004 14878.750000000002 19670.560000000005 4879.0300000000007 4.5000000000000009
decision_type=2 2 2 10 2 2
left_child=4 2 3 -2 5 -1
right_child=1 -3 -4 -5 -6 -7
leaf_value=-113.14499085649727 -42.514410785441299 -139.76336175834632 71.268375582718505 32.378761057178608 10.558778065652726 -6.803998245950539
leaf_weight=218 222 300 36 42 1001 1031
leaf_count=218 222 300 36 42 1001 1031
internal_value=-0.000368293 -0.00139767 -9.96685e-05 -0.000837737 -9.32926e-05 -0.000669601
internal_weight=2850 600 300 264 2250 1249
internal_count=2850 600 300 264 2250 1249
is_linear=0
shrinkage=0.03


Tree=118
num_leaves=7
num_cat=0
split_feature=15 1 26 19 12 26
split_gain=0.974679 1.34409 1.0121 1.60655 1.3959 0.955127
threshold=11.500000000000002 8320.345000000003 1.5000000000000002 0.80402389839014587 12.462556217759923 4.5000000000000009
decision_type=2 2 2 2 2 2
left_child=1 5 3 -3 -4 -1
right_child=-2 2 4 -5 -6 -7
leaf_value=-1.7259420608269826 -61.625418828032622 24.073208159728892 19.895199972844711 223.84522763682548 -87.990293002671578 -45.466108315256406
leaf_weight=1107 300 38 547 31 115 712
leaf_count=1107 300 38 547 31 115 712
internal_value=-0.000378815 -0.000188162 0.00089754 0.00432857 0.000533936 -0.000624726
internal_weight=2850 2550 731 69 662 1819
internal_count=2850 2550 731 69 662 1819
is_linear=0
shrinkage=0.03


Tree=119
num_leaves=7
num_cat=0
split_feature=19 26 14 8 6 6
split_gain=1.06361 1.1368 1.57481 0.987109 1.00928 1.37857
threshold=1.2379496604889408 1.5000000000000002 1.0000000180025095e-35 6925.3987835343978 9850.5550000000021 10753.564166666669
decision_type=2 2 2 2 2 2
left_child=3 2 -2 4 -1 -6
right_child=1 -3 -4 -5 5 -7
leaf_value=-16.439870415958929 -38.753843298573038 -124.09934319316 45.656265684180568 13.95346371420338 82.740079086542295 2.2415991240706932
leaf_weight=1558 40 350 30 636 37 199
leaf_count=1558 40 350 30 636 37 199
internal_value=-0.000389338 -0.00178147 0.00169014 -0.000148088 -0.000508079 0.00131645
internal_weight=2850 420 70 2430 1794 236
internal_count=2850 420 70 2430 1794 236
is_linear=0
shrinkage=0.03


Tree=120
num_leaves=7
num_cat=1
split_feature=19 26 14 7 25 22
split_gain=1.04759 1.1368 1.57481 1.01294 1.21997 1.29355
threshold=1.2379496604889408 1.5000000000000002 1.0000000180025095e-35 8362.9751196194848 0 1.7038480474405906
decision_type=2 2 2 2 1 2
left_child=3 2 -2 4 5 -1
right_child=1 -3 -4 -5 -6 -7
leaf_value=-52.936060267870694 -37.591227999615796 -120.37636289736518 44.286577713655142 46.066770989129445 -12.761024321831735 83.069589255684008
leaf_weight=338 40 350 30 164 1472 456
leaf_count=338 40 350 30 164 1472 456
internal_value=-0.00039986 -0.00178147 0.00169014 -0.000160429 -0.000325541 0.000618633
internal_weight=2850 420 70 2430 2266 794
internal_count=2850 420 70 2430 2266 794
cat_boundaries=0 1
cat_threshold=20
is_linear=0
shrinkage=0.03


Tree=121
num_leaves=7
num_cat=1
split_feature=19 26 14 8 25 26
split_gain=1.01591 1.1368 1.57481 1.06042 0.857727 1.26394
threshold=1.2379496604889408 1.5000000000000002 1.0000000180025095e-35 6925.3987835343978 0 4.5000000000000009
decision_type=2 2 2 2 1 2
left_child=3 2 -2 4 5 -1
right_child=1 -3 -4 -5 -6 -7
leaf_value=73.292912629239652 -36.463491159627331 -116.76507201044424 42.957980382245502 13.917690532432225 -16.452269759114174 -83.384389252217986
leaf_weight=379 40 350 30 636 1177 238
leaf_count=379 40 350 30 636 1177 238
internal_value=-0.000420906 -0.00178147 0.00169014 -0.00018511 -0.000558218 0.000348725
internal_weight=2850 420 70 2430 1794 617
internal_count=2850 420 70 2430 1794 617
cat_boundaries=0 1
cat_threshold=20
is_linear=0
shrinkage=0.03


Tree=122
num_leaves=7
num_cat=0
split_feature=19 26 14 8 6 3
split_gain=1.00025 1.1368 1.57481 1.08544 0.813478 1.26879
threshold=1.2379496604889408 1.5000000000000002 1.0000000180025095e-35 6925.3987835343978 9850.5550000000021 5442.5000000000009
decision_type=2 2 2 2 2 2
left_child=3 2 -2 4 -1 -6
right_child=1 -3 -4 -5 5 -7
leaf_value=-17.333452280713722 -35.369586424838559 -113.26211985013096 41.669240970778148 13.500159816459263 93.646670485413495 2.5683033106504465
leaf_weight=1558 40 350 30 636 35 201
leaf_count=1558 40 350 30 636 35 201
internal_value=-0.000431428 -0.00178147 0.00169014 -0.00019745 -0.000574931 0.00106329
internal_weight=2850 420 70 2430 1794 236
internal_count=2850 420 70 2430 1794 236
is_linear=0
shrinkage=0.03


Tree=123
num_leaves=7
num_cat=0
split_feature=15 0 15 26 4 2
split_gain=1.01766 1.21163 1.25223 1.07285 0.972985 0.927474
threshold=9.5000000000000018 4879.0300000000007 4.5000000000000009 2.5000000000000004 15325.835000000001 12019.165000000003
decision_type=2 2 2 2 10 2
left_child=1 2 -1 4 -2 -5
right_child=3 -3 -4 5 -6 -7
leaf_value=-108.02314990781649 -28.4812610901105 19.154527375725579 -2.5045582008306067 -80.44144867440265 27.287230626907913 6.7619468344634015
leaf_weight=218 190 803 929 516 110 84
leaf_count=218 190 803 929 516 110 84
internal_value=-0.000431428 -4.61309e-05 -0.000671604 -0.00126526 0.000199335 -0.00199667
internal_weight=2850 1950 1147 900 300 600
internal_count=2850 1950 1147 900 300 600
is_linear=0
shrinkage=0.03


Tree=124
num_leaves=7
num_cat=0
split_feature=19 26 14 8 4 26
split_gain=1.01591 1.1368 1.57481 1.06042 0.906679 0.918976
threshold=1.2379496604889408 1.5000000000000002 1.0000000180025095e-35 6925.3987835343978 8482.5000000000018 5.5000000000000009
decision_type=2 2 2 2 10 2
left_child=3 2 -2 -1 5 -5
right_child=1 -3 -4 4 -6 -7
leaf_value=-10.54387119600127 -35.127115750900622 -108.59436554835197 41.10629725598033 -4.2952537543884812 21.743183417318299 33.048262033654176
leaf_weight=1794 40 350 30 391 108 137
leaf_count=1794 40 350 30 391 108 137
internal_value=-0.000420906 -0.00178147 0.00169014 -0.00018511 0.000866561 0.000351606
internal_weight=2850 420 70 2430 636 528
internal_count=2850 420 70 2430 636 528
is_linear=0
shrinkage=0.03


Tree=125
num_leaves=7
num_cat=0
split_feature=15 1 12 26 19 22
split_gain=0.974679 1.44749 0.971759 0.959853 1.38726 1.01394
threshold=11.500000000000002 8320.345000000003 4.1164702132877116 1.5000000000000002 0.80402389839014587 1.3261280289496626
decision_type=2 2 2 2 2 2
left_child=1 -1 -3 4 -4 -5
right_child=-2 2 3 5 -6 -7
leaf_value=-14.259222963182603 -58.41310311590933 42.847656990967785 24.811503749371294 24.389680590732787 212.29099297812562 -1.8691272720865053
leaf_weight=1819 300 48 38 48 30 567
leaf_count=1819 300 48 38 48 30 567
internal_value=-0.000378815 -0.000188162 0.000938524 0.000644736 0.004 0.000267856
internal_weight=2850 2550 731 683 68 615
internal_count=2850 2550 731 683 68 615
is_linear=0
shrinkage=0.03


Tree=126
num_leaves=7
num_cat=0
split_feature=19 26 14 8 11 19
split_gain=1.01952 1.0908 1.57481 1.07304 1.1715 1.31801
threshold=1.2379496604889408 1.5000000000000002 1.0000000180025095e-35 3089.5378938932708 4.3164683932281491 1.1127083117946952
decision_type=2 2 2 2 2 2
left_child=3 2 -2 -1 5 -5
right_child=1 -3 -4 4 -6 -7
leaf_value=-36.796592567388366 -34.76271276665782 -104.5925866153126 39.621239078571385 -18.116161074440203 14.648795546872982 56.396744595138827
leaf_weight=494 40 350 30 1057 791 88
leaf_count=494 40 350 30 1057 791 88
internal_value=-0.000347247 -0.00171021 0.00169014 -0.000111066 0.000207537 -0.00040576
internal_weight=2850 420 70 2430 1936 1145
internal_count=2850 420 70 2430 1936 1145
is_linear=0
shrinkage=0.03


Tree=127
num_leaves=7
num_cat=2
split_feature=19 6 6 25 15 25
split_gain=1.17529 0.943747 1.90905 1.07954 0.957789 0.845013
threshold=1.2379496604889408 9850.5550000000021 10437.361666666668 0 4.5000000000000009 1
decision_type=2 2 2 1 2 1
left_child=1 4 -3 -4 -1 -6
right_child=-2 2 3 -5 5 -7
leaf_value=-81.682277569932239 -69.383831897524502 98.055077457855063 69.860726119110595 -15.144922467277528 22.916017645728729 -7.3931287057853448
leaf_weight=284 420 32 192 275 542 1105
leaf_count=284 420 32 192 275 542 1105
internal_value=-0.000389338 -0.000135747 0.001026 0.000532051 -0.000436336 -0.000158375
internal_weight=2850 2430 499 467 1931 1647
internal_count=2850 2430 499 467 1931 1647
cat_boundaries=0 1 2
cat_threshold=17 20
is_linear=0
shrinkage=0.03


Tree=128
num_leaves=7
num_cat=0
split_feature=19 26 14 11 19 26
